{"learner":{"attributes":{"scikit_learn":"{\"_estimator_type\": \"classifier\"}"},"feature_names":[],"feature_types":[],"gradient_booster":{"model":{"gbtree_model_param":{"num_parallel_tree":"1","num_trees":"500"},"iteration_indptr":[0,5,10,15,20,25,30,35,40,45,50,55,60,65,70,75,80,85,90,95,100,105,110,115,120,125,130,135,140,145,150,155,160,165,170,175,180,185,190,195,200,205,210,215,220,225,230,235,240,245,250,255,260,265,270,275,280,285,290,295,300,305,310,315,320,325,330,335,340,345,350,355,360,365,370,375,380,385,390,395,400,405,410,415,420,425,430,435,440,445,450,455,460,465,470,475,480,485,490,495,500],"tree_info":[0,1,2,3,4,0,1,2,3,4,0,1,2,3,4,0,1,2,3,4,0,1,2,3,4,0,1,2,3,4,0,1,2,3,4,0,1,2,3,4,0,1,2,3,4,0,1,2,3,4,0,1,2,3,4,0,1,2,3,4,0,1,2,3,4,0,1,2,3,4,0,1,2,3,4,0,1,2,3,4,0,1,2,3,4,0,1,2,3,4,0,1,2,3,4,0,1,2,3,4,0,1,2,3,4,0,1,2,3,4,0,1,2,3,4,0,1,2,3,4,0,1,2,3,4,0,1,2,3,4,0,1,2,3,4,0,1,2,3,4,0,1,2,3,4,0,1,2,3,4,0,1,2,3,4,0,1,2,3,4,0,1,2,3,4,0,1,2,3,4,0,1,2,3,4,0,1,2,3,4,0,1,2,3,4,0,1,2,3,4,0,1,2,3,4,0,1,2,3,4,0,1,2,3,4,0,1,2,3,4,0,1,2,3,4,0,1,2,3,4,0,1,2,3,4,0,1,2,3,4,0,1,2,3,4,0,1,2,3,4,0,1,2,3,4,0,1,2,3,4,0,1,2,3,4,0,1,2,3,4,0,1,2,3,4,0,1,2,3,4,0,1,2,3,4,0,1,2,3,4,0,1,2,3,4,0,1,2,3,4,0,1,2,3,4,0,1,2,3,4,0,1,2,3,4,0,1,2,3,4,0,1,2,3,4,0,1,2,3,4,0,1,2,3,4,0,1,2,3,4,0,1,2,3,4,0,1,2,3,4,0,1,2,3,4,0,1,2,3,4,0,1,2,3,4,0,1,2,3,4,0,1,2,3,4,0,1,2,3,4,0,1,2,3,4,0,1,2,3,4,0,1,2,3,4,0,1,2,3,4,0,1,2,3,4,0,1,2,3,4,0,1,2,3,4,0,1,2,3,4,0,1,2,3,4,0,1,2,3,4,0,1,2,3,4,0,1,2,3,4,0,1,2,3,4,0,1,2,3,4,0,1,2,3,4,0,1,2,3,4,0,1,2,3,4,0,1,2,3,4,0,1,2,3,4,0,1,2,3,4,0,1,2,3,4,0,1,2,3,4,0,1,2,3,4,0,1,2,3,4,0,1,2,3,4,0,1,2,3,4],"trees":[{"base_weights":[-4.3278074E-1,1.1355181E0,-4.6441573E-1,1.9362559E0,7.6648635E-1,1.5980822E-1,-5.0422573E-1,1.7267512E0,2.234385E0,4.2614195E-1,1.231884E0,9.8168594E-1,6.955725E-2,-3.4143052E-1,-5.4727674E-1,5.670103E-1,1.7560151E0,1.15384616E-1,6.8307996E-1,5.29344E-1,-1.9674355E-1,1.404435E0,6.123662E-1,2.0350108E0,8.274916E-1,4.9110082E-1,-5.2097194E-2,-1.525416E-2,-4.1342387E-1,-4.8131594E-1,-5.757703E-1,-0E0,2.8947368E-1,1.7010309E-1,5.3613406E-1,2.2548531E-1,1.00381196E-1,-1.0370995E-1,1.0650888E-1,-3.7037037E-2,4.3087968E-1,8.435853E-2,3.5858586E-1,6.641221E-1,2.0224719E-1,2.868203E-1,3.4026466E-2,1.7337807E-1,-4.972376E-2,3.9711397E-2,-4.3405056E-2,4.402123E-2,-4.1322313E-2,-1.0768383E-1,-1.4313409E-1,-1.1581787E-1,-1.5418336E-1,-1.6474482E-1,-1.7813261E-1],"categories":[],"categories_nodes":[],"categories_segments":[],"categories_sizes":[],"default_left":[0,0,0,0,0,0,0,0,0,0,0,0,0,0,0,0,0,0,0,0,0,0,0,0,0,0,0,0,0,0,0,0,0,0,0,0,0,0,0,0,0,0,0,0,0,0,0,0,0,0,0,0,0,0,0,0,0,0,0],"id":0,"left_children":[1,3,5,7,9,11,13,15,17,19,21,23,25,27,29,31,33,-1,-1,35,37,39,41,43,45,47,49,51,53,55,57,-1,-1,-1,-1,-1,-1,-1,-1,-1,-1,-1,-1,-1,-1,-1,-1,-1,-1,-1,-1,-1,-1,-1,-1,-1,-1,-1,-1],"loss_changes":[1.2677349E3,1.4783679E2,6.22271E2,6.0578613E0,5.4526978E1,1.1132814E2,1.6476953E2,2.3180847E0,4.013336E0,1.31073265E1,1.4777084E1,2.2438171E1,6.9476654E1,1.15648865E2,3.470508E1,8.753841E-1,2.4906006E0,0E0,0E0,7.2715454E0,2.5456972E0,5.7040405E0,6.1579676E0,2.9537354E0,1.19410095E1,1.7399124E1,1.7984486E1,1.7710407E1,1.3827515E1,1.7271606E1,5.900879E0,0E0,0E0,0E0,0E0,0E0,0E0,0E0,0E0,0E0,0E0,0E0,0E0,0E0,0E0,0E0,0E0,0E0,0E0,0E0,0E0,0E0,0E0,0E0,0E0,0E0,0E0,0E0,0E0],"parents":[2147483647,0,0,1,1,2,2,3,3,4,4,5,5,6,6,7,7,8,8,9,9,10,10,11,11,12,12,13,13,14,14,15,15,16,16,19,19,20,20,21,21,22,22,23,23,24,24,25,25,26,26,27,27,28,28,29,29,30,30],"right_children":[2,4,6,8,10,12,14,16,18,20,22,24,26,28,30,32,34,-1,-1,36,38,40,42,44,46,48,50,52,54,56,58,-1,-1,-1,-1,-1,-1,-1,-1,-1,-1,-1,-1,-1,-1,-1,-1,-1,-1,-1,-1,-1,-1,-1,-1,-1,-1,-1,-1],"split_conditions":[-2.2458696E0,-1.2670693E0,-1.6705309E0,2.1905398E0,3.009624E-1,-2.9616082E0,-5.87692E-1,-1.04744E0,-1.3029722E0,1.0588515E0,5.534498E-1,-1.6481434E0,-9.009195E-1,-9.009195E-1,-3.091026E-1,-7.2865075E-1,-1.2539918E0,1.15384616E-1,6.8307996E-1,-3.4186556E0,-3.0966433E-2,-2.8825405E0,3.1531578E-1,-3.1654625E0,6.9956386E-1,2.5170588E0,-2.3463896E-1,-1.0249923E0,2.36131E-1,-5.6684513E-2,3.2698464E-1,-0E0,2.8947368E-1,1.7010309E-1,5.3613406E-1,2.2548531E-1,1.00381196E-1,-1.0370995E-1,1.0650888E-1,-3.7037037E-2,4.3087968E-1,8.435853E-2,3.5858586E-1,6.641221E-1,2.0224719E-1,2.868203E-1,3.4026466E-2,1.7337807E-1,-4.972376E-2,3.9711397E-2,-4.3405056E-2,4.402123E-2,-4.1322313E-2,-1.0768383E-1,-1.4313409E-1,-1.1581787E-1,-1.5418336E-1,-1.6474482E-1,-1.7813261E-1],"split_indices":[5,4,4,1,1,4,4,1,9,4,0,0,5,5,5,8,7,0,0,5,7,10,10,4,5,1,5,4,5,4,4,0,0,0,0,0,0,0,0,0,0,0,0,0,0,0,0,0,0,0,0,0,0,0,0,0,0,0,0],"split_type":[0,0,0,0,0,0,0,0,0,0,0,0,0,0,0,0,0,0,0,0,0,0,0,0,0,0,0,0,0,0,0,0,0,0,0,0,0,0,0,0,0,0,0,0,0,0,0,0,0,0,0,0,0,0,0,0,0,0,0],"sum_hessian":[2.5540803E4,5.0432004E2,2.5036482E4,1.5776001E2,3.4656003E2,1.5008E3,2.3535682E4,9.664001E1,6.1120003E1,2.0128001E2,1.4528001E2,1.4752E2,1.3532802E3,4.92416E3,1.8611521E4,2.88E0,9.376001E1,1.6000001E0,5.9520004E1,1.7280002E2,2.8480001E1,1.1264001E2,3.2640003E1,1.728E1,1.3024E2,3.0240002E2,1.0508801E3,8.9056006E2,4.0336003E3,5.6198403E3,1.2991681E4,1.6000001E0,1.2800001E0,2.88E0,9.0880005E1,7.936001E1,9.344001E1,2.2720001E1,5.76E0,2.2400002E0,1.1040001E2,2.1760002E1,1.0880001E1,1.4720001E1,2.5600002E0,1.1008001E2,2.0160002E1,2.672E2,3.52E1,3.5104004E2,6.9984E2,3.8336002E2,5.0720004E2,2.1776E3,1.8560001E3,1.4371201E3,4.18272E3,5.2544004E3,7.737281E3],"tree_param":{"num_deleted":"0","num_feature":"11","num_nodes":"59","size_leaf_vector":"1"}},{"base_weights":[-2.698322E-1,1.2914116E-3,-4.0919682E-1,1.5674658E-1,-1.8427095E-1,-2.1129645E-1,-4.7673947E-1,2.6276952E-1,4.3308258E-2,3.300935E-2,-2.669357E-1,6.843566E-2,-2.583871E-1,-4.2187616E-1,-5.423969E-1,-2.3258135E-1,3.069588E-1,2.8936306E-1,-4.8205223E-2,7.403165E-2,-3.2030973E-1,-2.1314827E-1,-3.7881723E-1,-4.968753E-2,2.6855552E-1,-1.3360323E-1,-3.6901656E-1,-3.4941503E-1,-4.651553E-1,-4.9865532E-1,-5.618466E-1,4.1795667E-2,-9.5940955E-2,1.1657611E-1,5.6069214E-2,-3.448276E-2,9.781459E-2,1.1397079E-2,-3.55227E-2,6.824124E-2,8.085606E-3,-1.0502693E-1,2.4074075E-1,-4.2617302E-2,-8.7684035E-2,-5.0379198E-2,-1.22063205E-1,3.7082818E-3,-6.8862274E-2,3.6279872E-2,1.4642082E-1,-7.219673E-3,-5.4635596E-2,-8.959887E-2,-1.35545E-1,-7.515826E-2,-1.2051495E-1,-1.3180336E-1,-1.5414539E-1,-1.453649E-1,-1.7852628E-1,-1.6336332E-1,-1.7620994E-1],"categories":[],"categories_nodes":[],"categories_segments":[],"categories_sizes":[],"default_left":[0,0,0,0,0,0,0,0,0,0,0,0,0,0,0,0,0,0,0,0,0,0,0,0,0,0,0,0,0,0,0,0,0,0,0,0,0,0,0,0,0,0,0,0,0,0,0,0,0,0,0,0,0,0,0,0,0,0,0,0,0,0,0],"id":1,"left_children":[1,3,5,7,9,11,13,15,17,19,21,23,25,27,29,31,33,35,37,39,41,43,45,47,49,51,53,55,57,59,61,-1,-1,-1,-1,-1,-1,-1,-1,-1,-1,-1,-1,-1,-1,-1,-1,-1,-1,-1,-1,-1,-1,-1,-1,-1,-1,-1,-1,-1,-1,-1,-1],"loss_changes":[9.6509863E2,2.5020648E2,2.2539746E2,5.675299E1,7.102757E1,5.6587326E1,4.5074707E1,5.346791E1,5.1383186E1,1.5830831E1,1.7156433E1,1.46589985E1,5.069539E1,2.1338379E1,4.5877686E0,6.5437975E0,2.188063E1,9.212666E0,1.007208E1,7.0585146E0,4.0806446E0,1.085334E1,5.4271393E0,4.360002E0,7.3980637E0,9.183983E0,1.1212006E1,1.3179504E1,5.161743E0,2.1192017E0,1.4255371E0,0E0,0E0,0E0,0E0,0E0,0E0,0E0,0E0,0E0,0E0,0E0,0E0,0E0,0E0,0E0,0E0,0E0,0E0,0E0,0E0,0E0,0E0,0E0,0E0,0E0,0E0,0E0,0E0,0E0,0E0,0E0,0E0],"parents":[2147483647,0,0,1,1,2,2,3,3,4,4,5,5,6,6,7,7,8,8,9,9,10,10,11,11,12,12,13,13,14,14,15,15,16,16,17,17,18,18,19,19,20,20,21,21,22,22,23,23,24,24,25,25,26,26,27,27,28,28,29,29,30,30],"right_children":[2,4,6,8,10,12,14,16,18,20,22,24,26,28,30,32,34,36,38,40,42,44,46,48,50,52,54,56,58,60,62,-1,-1,-1,-1,-1,-1,-1,-1,-1,-1,-1,-1,-1,-1,-1,-1,-1,-1,-1,-1,-1,-1,-1,-1,-1,-1,-1,-1,-1,-1,-1,-1],"split_conditions":[-2.7114195E-1,-6.102202E-3,-4.1750455E-1,-6.196912E-1,-1.3429443E0,-1.4709972E0,6.349639E-1,-3.4186556E0,-1.4622927E0,1.3225203E0,8.01366E-1,7.2972727E-1,4.6240836E-1,2.36131E-1,1.9332516E-1,-2.2533277E-2,-8.1519234E-1,-5.6939703E-1,-7.882949E-1,-2.1764936E0,2.8707879E0,-7.139298E-1,-1.1423631E0,7.886636E-1,-2.643992E-1,-1.0971415E0,9.0278035E-1,6.4353965E-2,9.631403E-1,1.4633965E0,9.299809E-1,4.1795667E-2,-9.5940955E-2,1.1657611E-1,5.6069214E-2,-3.448276E-2,9.781459E-2,1.1397079E-2,-3.55227E-2,6.824124E-2,8.085606E-3,-1.0502693E-1,2.4074075E-1,-4.2617302E-2,-8.7684035E-2,-5.0379198E-2,-1.22063205E-1,3.7082818E-3,-6.8862274E-2,3.6279872E-2,1.4642082E-1,-7.219673E-3,-5.4635596E-2,-8.959887E-2,-1.35545E-1,-7.515826E-2,-1.2051495E-1,-1.3180336E-1,-1.5414539E-1,-1.453649E-1,-1.7852628E-1,-1.6336332E-1,-1.7620994E-1],"split_indices":[4,5,5,5,4,5,4,5,4,5,5,0,4,5,5,1,4,5,4,4,1,4,4,4,1,5,4,4,5,4,5,0,0,0,0,0,0,0,0,0,0,0,0,0,0,0,0,0,0,0,0,0,0,0,0,0,0,0,0,0,0,0,0],"split_type":[0,0,0,0,0,0,0,0,0,0,0,0,0,0,0,0,0,0,0,0,0,0,0,0,0,0,0,0,0,0,0,0,0,0,0,0,0,0,0,0,0,0,0,0,0,0,0,0,0,0,0,0,0,0,0,0,0,0,0,0,0,0,0],"sum_hessian":[2.5540803E4,8.671681E3,1.6869121E4,4.71872E3,3.9529602E3,4.2934404E3,1.2575681E4,2.4384001E3,2.28032E3,1.0896001E3,2.86336E3,6.1856006E2,3.6748804E3,6.8550405E3,5.7206406E3,1.9936002E2,2.23904E3,6.1760004E2,1.6627201E3,9.769601E2,1.1264001E2,1.9356802E3,9.2768005E2,3.8944003E2,2.2912001E2,1.7280001E3,1.9468801E3,2.5667202E3,4.2883203E3,1.7689601E3,3.9516802E3,3.7760002E1,1.616E2,1.3315201E3,9.075201E2,5.1200005E1,5.664E2,7.4656006E2,9.161601E2,2.2848001E2,7.4848004E2,1.1040001E2,2.2400002E0,1.02112006E3,9.1456006E2,1.0976001E2,8.1792004E2,2.9024002E2,9.9200005E1,1.3792001E2,9.1200005E1,5.3088007E2,1.1971201E3,1.05504E3,8.918401E2,8.8992004E2,1.6768002E3,2.8086401E3,1.47968E3,1.5484801E3,2.2048001E2,2.36832E3,1.5833601E3],"tree_param":{"num_deleted":"0","num_feature":"11","num_nodes":"63","size_leaf_vector":"1"}},{"base_weights":[2.2171497E-1,4.0040174E-1,-1.50360605E-2,4.810219E-1,1.3268927E-1,1.8908912E-1,-2.0480776E-1,-3.0490598E-1,5.128634E-1,2.7448842E-1,-1.6168639E-2,2.9070845E-1,-3.8122233E-2,-1.11901395E-1,-3.2926205E-1,-3.9177904E-1,-8.744038E-2,3.85587E-2,5.2646685E-1,3.4407958E-1,-1.3419087E-1,8.227569E-2,-1.6813995E-1,4.593785E-1,1.9661246E-1,1.2419897E-1,-1.3328683E-1,-3.0761948E-2,-2.6091492E-1,-2.6705235E-1,-4.505708E-1,-1.486713E-1,-8.092485E-2,-4.877603E-2,1.1778291E-1,-4.6123646E-2,5.079082E-2,1.7563084E-1,1.2119857E-1,1.299963E-1,7.501248E-2,-1.2246179E-2,-1.262136E-1,1.8083961E-1,1.863083E-2,-2.210663E-2,-7.143627E-2,-5.0561797E-2,1.5142979E-1,2.6362864E-2,7.897773E-2,7.308782E-2,-1.2782074E-2,-1.7469518E-2,-9.44334E-2,6.163616E-3,-3.889412E-2,-6.719279E-2,-9.6594594E-2,-5.67476E-2,-1.0188788E-1,-1.185587E-1,-1.6255678E-1],"categories":[],"categories_nodes":[],"categories_segments":[],"categories_sizes":[],"default_left":[0,0,0,0,0,0,0,0,0,0,0,0,0,0,0,0,0,0,0,0,0,0,0,0,0,0,0,0,0,0,0,0,0,0,0,0,0,0,0,0,0,0,0,0,0,0,0,0,0,0,0,0,0,0,0,0,0,0,0,0,0,0,0],"id":2,"left_children":[1,3,5,7,9,11,13,15,17,19,21,23,25,27,29,31,33,35,37,39,41,43,45,47,49,51,53,55,57,59,61,-1,-1,-1,-1,-1,-1,-1,-1,-1,-1,-1,-1,-1,-1,-1,-1,-1,-1,-1,-1,-1,-1,-1,-1,-1,-1,-1,-1,-1,-1,-1,-1],"loss_changes":[1.0805336E3,3.1409595E2,4.2564105E2,2.8010254E2,7.114407E1,1.2224002E2,6.5802E1,8.206394E0,6.9349365E1,4.9137817E1,2.4626602E1,5.796582E1,2.5301203E1,3.943E1,1.824289E1,3.8104134E0,4.6019464E0,7.589937E0,7.5245605E1,1.2271973E1,6.7212596E0,1.0453375E1,4.25951E0,3.739554E1,1.700563E1,1.2072232E1,1.4044312E1,1.0723038E1,2.521553E0,9.042381E0,3.9480896E0,0E0,0E0,0E0,0E0,0E0,0E0,0E0,0E0,0E0,0E0,0E0,0E0,0E0,0E0,0E0,0E0,0E0,0E0,0E0,0E0,0E0,0E0,0E0,0E0,0E0,0E0,0E0,0E0,0E0,0E0,0E0,0E0],"parents":[2147483647,0,0,1,1,2,2,3,3,4,4,5,5,6,6,7,7,8,8,9,9,10,10,11,11,12,12,13,13,14,14,15,15,16,16,17,17,18,18,19,19,20,20,21,21,22,22,23,23,24,24,25,25,26,26,27,27,28,28,29,29,30,30],"right_children":[2,4,6,8,10,12,14,16,18,20,22,24,26,28,30,32,34,36,38,40,42,44,46,48,50,52,54,56,58,60,62,-1,-1,-1,-1,-1,-1,-1,-1,-1,-1,-1,-1,-1,-1,-1,-1,-1,-1,-1,-1,-1,-1,-1,-1,-1,-1,-1,-1,-1,-1,-1,-1],"split_conditions":[3.169146E-1,6.027284E-1,2.0494357E-1,-2.091694E0,-3.290211E-1,1.0295898E0,9.2475295E-1,-3.0213864E0,-2.4991326E0,1.5448709E0,1.0825734E0,-6.3109815E-1,-5.616167E-1,9.650017E-1,1.008672E0,-9.087954E-1,5.4432783E-2,-2.9616082E0,2.5750779E-2,-8.656506E-1,2.0516484E0,-1.5918847E0,-5.2296805E-1,-2.091694E0,-3.091847E-1,1.3874775E0,1.460253E0,7.108371E-1,1.4314219E0,1.21279E0,1.3066545E0,-1.486713E-1,-8.092485E-2,-4.877603E-2,1.1778291E-1,-4.6123646E-2,5.079082E-2,1.7563084E-1,1.2119857E-1,1.299963E-1,7.501248E-2,-1.2246179E-2,-1.262136E-1,1.8083961E-1,1.863083E-2,-2.210663E-2,-7.143627E-2,-5.0561797E-2,1.5142979E-1,2.6362864E-2,7.897773E-2,7.308782E-2,-1.2782074E-2,-1.7469518E-2,-9.44334E-2,6.163616E-3,-3.889412E-2,-6.719279E-2,-9.6594594E-2,-5.67476E-2,-1.0188788E-1,-1.185587E-1,-1.6255678E-1],"split_indices":[4,5,5,5,4,4,4,5,4,5,5,5,5,5,5,4,4,4,5,4,5,0,0,5,0,4,4,4,5,4,4,0,0,0,0,0,0,0,0,0,0,0,0,0,0,0,0,0,0,0,0,0,0,0,0,0,0,0,0,0,0,0,0],"split_type":[0,0,0,0,0,0,0,0,0,0,0,0,0,0,0,0,0,0,0,0,0,0,0,0,0,0,0,0,0,0,0,0,0,0,0,0,0,0,0,0,0,0,0,0,0,0,0,0,0,0,0,0,0,0,0,0,0,0,0,0,0,0,0],"sum_hessian":[2.5540803E4,1.4554881E4,1.0985921E4,1.1185601E4,3.3692803E3,5.2928003E3,5.6931206E3,4.3520004E2,1.07504E4,1.7251201E3,1.6441602E3,3.6569602E3,1.6358401E3,3.2608003E3,2.43232E3,3.1040002E2,1.2480001E2,2.9984003E2,1.0450561E4,1.4742401E3,2.5088002E2,9.980801E2,6.4608E2,1.30816E3,2.3488E3,6.0448004E2,1.0313601E3,2.1120002E3,1.1488E3,1.6099202E3,8.224001E2,1.6608002E2,1.4432E2,1.0848001E2,1.6320002E1,1.2128001E2,1.7856001E2,7.0515205E3,3.3990403E3,7.5456006E2,7.1968005E2,1.9008002E2,6.0800003E1,3.6160004E1,9.6192004E2,2.7584003E2,3.7024002E2,8.800001E1,1.22016E3,8.9344006E2,1.4553601E3,3.5200003E2,2.5248001E2,7.3056006E2,3.0080002E2,1.39104E3,7.2096E2,7.1872003E2,4.3008002E2,7.7824005E2,8.3168005E2,5.152E2,3.072E2],"tree_param":{"num_deleted":"0","num_feature":"11","num_nodes":"63","size_leaf_vector":"1"}},{"base_weights":[4.4511348E-1,5.7895157E-2,5.767354E-1,-1.7428407E-1,3.205187E-1,2.7246183E-1,6.366399E-1,-3.2135773E-1,-2.8145196E-2,-1.0527397E-2,4.3430236E-1,6.368661E-2,4.6294713E-1,6.6321224E-1,3.2874593E-1,-4.2500716E-1,-1.8506545E-1,-2.7157098E-1,9.54658E-2,-1.9833207E-1,1.6264169E-1,3.408329E-1,5.7765615E-1,-9.98048E-2,1.8385588E-1,-6.6469714E-2,5.102393E-1,4.9973348E-1,6.828527E-1,1.0679611E0,2.9060706E-1,-1.5239899E-1,-1.0737239E-1,-1.2842329E-1,-3.693086E-2,-9.689241E-2,-4.4616096E-2,6.985408E-3,5.6329064E-2,-1.3700235E-1,-4.7054466E-2,-1.5905075E-2,8.9869544E-2,5.4745436E-2,1.2765814E-1,1.3592178E-1,1.965865E-1,-8.175284E-2,-6.0567125E-3,2.9347561E-2,8.952319E-2,-7.080055E-2,6.8454765E-2,1.3550471E-1,2.2906299E-1,9.374479E-2,1.9701993E-1,2.1265632E-1,1.5827253E-1,1.0948905E-2,3.443824E-1,1.1969567E-1,2.3946267E-2],"categories":[],"categories_nodes":[],"categories_segments":[],"categories_sizes":[],"default_left":[0,0,0,0,0,0,0,0,0,0,0,0,0,0,0,0,0,0,0,0,0,0,0,0,0,0,0,0,0,0,0,0,0,0,0,0,0,0,0,0,0,0,0,0,0,0,0,0,0,0,0,0,0,0,0,0,0,0,0,0,0,0,0],"id":3,"left_children":[1,3,5,7,9,11,13,15,17,19,21,23,25,27,29,31,33,35,37,39,41,43,45,47,49,51,53,55,57,59,61,-1,-1,-1,-1,-1,-1,-1,-1,-1,-1,-1,-1,-1,-1,-1,-1,-1,-1,-1,-1,-1,-1,-1,-1,-1,-1,-1,-1,-1,-1,-1,-1],"loss_changes":[1.3017407E3,3.952201E2,3.472788E2,7.393525E1,1.14563934E2,1.2473741E2,1.3007812E2,2.4142853E1,5.1984314E1,2.5364267E1,3.013086E1,2.9448235E1,4.1104034E1,4.672754E1,3.5416733E1,5.237259E0,1.1126715E1,3.6260223E0,7.630189E0,3.9378319E0,1.1998639E1,1.8329483E1,8.329102E0,8.729057E0,8.482962E0,6.8174915E0,2.1992584E1,4.6127777E1,5.24541E1,5.056404E0,2.75289E1,0E0,0E0,0E0,0E0,0E0,0E0,0E0,0E0,0E0,0E0,0E0,0E0,0E0,0E0,0E0,0E0,0E0,0E0,0E0,0E0,0E0,0E0,0E0,0E0,0E0,0E0,0E0,0E0,0E0,0E0,0E0,0E0],"parents":[2147483647,0,0,1,1,2,2,3,3,4,4,5,5,6,6,7,7,8,8,9,9,10,10,11,11,12,12,13,13,14,14,15,15,16,16,17,17,18,18,19,19,20,20,21,21,22,22,23,23,24,24,25,25,26,26,27,27,28,28,29,29,30,30],"right_children":[2,4,6,8,10,12,14,16,18,20,22,24,26,28,30,32,34,36,38,40,42,44,46,48,50,52,54,56,58,60,62,-1,-1,-1,-1,-1,-1,-1,-1,-1,-1,-1,-1,-1,-1,-1,-1,-1,-1,-1,-1,-1,-1,-1,-1,-1,-1,-1,-1,-1,-1,-1,-1],"split_conditions":[-6.172838E-1,-1.19994186E-1,-8.313796E-1,-1.2288467E0,-1.6002247E0,2.9646307E-1,1.392076E0,-6.196912E-1,-1.0519624E0,4.69569E-1,6.486117E-1,-1.270557E0,-2.091694E0,-2.8628328E-1,-1.6856493E0,-1.9025214E0,-2.2958965E0,6.4012367E-1,-8.0981284E-1,-2.6388388E0,-2.1106708E0,-1.0623788E0,-1.0249923E0,-2.0130262E0,-5.6684513E-2,-6.1646104E-2,6.484495E-1,1.1663007E-1,1.20505E0,-1.7119033E0,8.69523E-1,-1.5239899E-1,-1.0737239E-1,-1.2842329E-1,-3.693086E-2,-9.689241E-2,-4.4616096E-2,6.985408E-3,5.6329064E-2,-1.3700235E-1,-4.7054466E-2,-1.5905075E-2,8.9869544E-2,5.4745436E-2,1.2765814E-1,1.3592178E-1,1.965865E-1,-8.175284E-2,-6.0567125E-3,2.9347561E-2,8.952319E-2,-7.080055E-2,6.8454765E-2,1.3550471E-1,2.2906299E-1,9.374479E-2,1.9701993E-1,2.1265632E-1,1.5827253E-1,1.0948905E-2,3.443824E-1,1.1969567E-1,2.3946267E-2],"split_indices":[4,5,5,4,4,4,5,5,5,5,5,5,5,4,0,4,4,2,4,4,4,4,4,5,4,0,8,5,4,0,4,0,0,0,0,0,0,0,0,0,0,0,0,0,0,0,0,0,0,0,0,0,0,0,0,0,0,0,0,0,0,0,0],"split_type":[0,0,0,0,0,0,0,0,0,0,0,0,0,0,0,0,0,0,0,0,0,0,0,0,0,0,0,0,0,0,0,0,0,0,0,0,0,0,0,0,0,0,0,0,0,0,0,0,0,0,0,0,0,0,0,0,0,0,0,0,0,0,0],"sum_hessian":[2.5540803E4,6.4796807E3,1.9061121E4,3.4393604E3,3.0403203E3,3.1363203E3,1.5924801E4,1.7136001E3,1.7257601E3,7.7792004E2,2.2624001E3,1.4969601E3,1.6393601E3,1.4658562E4,1.2662401E3,9.721601E2,7.4144006E2,5.8080005E2,1.1449601E3,3.7312003E2,4.0480002E2,1.3715201E3,8.9088007E2,6.3424005E2,8.6272003E2,1.3440001E2,1.5049601E3,1.5750402E3,1.30835205E4,6.0800003E1,1.2054401E3,4.3168002E2,5.4048004E2,1.4944002E2,5.9200006E2,4.0832004E2,1.7248001E2,6.432001E2,5.0176004E2,5.024E1,3.2288004E2,1.5744002E2,2.4736002E2,4.7904004E2,8.9248004E2,3.4464E2,5.4624005E2,1.9936002E2,4.3488004E2,4.9376004E2,3.6896002E2,8.544E1,4.8960003E1,1.2246401E3,2.8032E2,7.1968005E2,8.5536005E2,1.1203841E4,1.8796802E3,4.4800005E0,5.6320004E1,7.955201E2,4.0992004E2],"tree_param":{"num_deleted":"0","num_feature":"11","num_nodes":"63","size_leaf_vector":"1"}},{"base_weights":[3.5784476E-2,-2.495815E-1,4.501626E-1,-3.4856662E-1,2.5227478E-1,1.9399633E-1,9.547678E-1,-4.6208632E-1,-2.180716E-1,1.2965581E-1,9.497476E-1,6.379721E-2,5.7384855E-1,7.6728076E-1,1.2953017E0,-5.2420634E-1,-3.450657E-1,-3.3869407E-1,-3.819897E-2,-2.3109937E-1,2.7371058E-1,7.910856E-1,1.6666666E0,-6.729458E-2,2.8954548E-1,1.631543E-1,6.984479E-1,6.6834235E-1,1.1722769E0,1.0441302E0,1.5311228E0,-1.7164893E-1,-1.437466E-1,-1.3911094E-1,-8.2646854E-2,-1.19440116E-1,-8.6422734E-2,-4.095372E-2,8.934452E-3,-9.311022E-2,-1.2072435E-2,5.1343273E-2,1.6233209E-1,1.2579416E-1,2.8555366E-1,8.139534E-2,5.265855E-1,-6.343115E-2,9.609603E-3,5.5040255E-2,1.2889992E-1,8.233984E-2,-4.629974E-2,1.8109542E-1,3.1554556E-1,1.7325702E-1,2.3064075E-1,1.05022825E-1,3.6635086E-1,2.654914E-1,3.7358493E-1,4.2548388E-1,5.4366225E-1],"categories":[],"categories_nodes":[],"categories_segments":[],"categories_sizes":[],"default_left":[0,0,0,0,0,0,0,0,0,0,0,0,0,0,0,0,0,0,0,0,0,0,0,0,0,0,0,0,0,0,0,0,0,0,0,0,0,0,0,0,0,0,0,0,0,0,0,0,0,0,0,0,0,0,0,0,0,0,0,0,0,0,0],"id":4,"left_children":[1,3,5,7,9,11,13,15,17,19,21,23,25,27,29,31,33,35,37,39,41,43,45,47,49,51,53,55,57,59,61,-1,-1,-1,-1,-1,-1,-1,-1,-1,-1,-1,-1,-1,-1,-1,-1,-1,-1,-1,-1,-1,-1,-1,-1,-1,-1,-1,-1,-1,-1,-1,-1],"loss_changes":[3.0204155E3,7.514977E2,1.3463044E3,1.870653E2,2.1304567E2,3.41729E2,2.2292798E2,4.8929688E1,1.27557495E2,1.1028845E2,4.105484E1,1.5235509E2,9.0147705E1,8.994873E1,7.207837E1,9.25647E0,1.9233948E1,1.0474213E1,1.5785698E1,9.152615E0,4.1490494E1,1.7944275E1,7.7591095E0,4.664245E1,2.8032059E1,1.4598211E1,4.4688293E1,1.6180481E1,1.7390564E1,1.8282593E1,1.7710693E1,0E0,0E0,0E0,0E0,0E0,0E0,0E0,0E0,0E0,0E0,0E0,0E0,0E0,0E0,0E0,0E0,0E0,0E0,0E0,0E0,0E0,0E0,0E0,0E0,0E0,0E0,0E0,0E0,0E0,0E0,0E0,0E0],"parents":[2147483647,0,0,1,1,2,2,3,3,4,4,5,5,6,6,7,7,8,8,9,9,10,10,11,11,12,12,13,13,14,14,15,15,16,16,17,17,18,18,19,19,20,20,21,21,22,22,23,23,24,24,25,25,26,26,27,27,28,28,29,29,30,30],"right_children":[2,4,6,8,10,12,14,16,18,20,22,24,26,28,30,32,34,36,38,40,42,44,46,48,50,52,54,56,58,60,62,-1,-1,-1,-1,-1,-1,-1,-1,-1,-1,-1,-1,-1,-1,-1,-1,-1,-1,-1,-1,-1,-1,-1,-1,-1,-1,-1,-1,-1,-1,-1,-1],"split_conditions":[3.6996454E-1,8.01366E-1,5.785498E-1,-3.794538E-1,1.6327696E0,1.1463647E0,1.0295898E0,6.560698E-3,2.5750779E-2,-7.882949E-1,2.2867458E0,2.5750779E-2,-6.811619E-1,1.4970378E0,1.008672E0,-1.0623788E0,-1.1739628E0,-6.196912E-1,3.2645524E-1,1.2736816E0,1.2736816E0,-6.9349957E-1,-1.957437E0,-6.3109815E-1,7.702197E-1,-4.6719868E-2,1.6058818E0,9.5628375E-1,-1.6856493E0,1.3593957E0,1.4633965E0,-1.7164893E-1,-1.437466E-1,-1.3911094E-1,-8.2646854E-2,-1.19440116E-1,-8.6422734E-2,-4.095372E-2,8.934452E-3,-9.311022E-2,-1.2072435E-2,5.1343273E-2,1.6233209E-1,1.2579416E-1,2.8555366E-1,8.139534E-2,5.265855E-1,-6.343115E-2,9.609603E-3,5.5040255E-2,1.2889992E-1,8.233984E-2,-4.629974E-2,1.8109542E-1,3.1554556E-1,1.7325702E-1,2.3064075E-1,1.05022825E-1,3.6635086E-1,2.654914E-1,3.7358493E-1,4.2548388E-1,5.4366225E-1],"split_indices":[4,5,5,4,5,4,4,5,5,4,5,5,5,5,5,4,4,5,5,5,5,4,4,5,4,1,4,5,0,4,4,0,0,0,0,0,0,0,0,0,0,0,0,0,0,0,0,0,0,0,0,0,0,0,0,0,0,0,0,0,0,0,0],"split_type":[0,0,0,0,0,0,0,0,0,0,0,0,0,0,0,0,0,0,0,0,0,0,0,0,0,0,0,0,0,0,0,0,0,0,0,0,0,0,0,0,0,0,0,0,0,0,0,0,0,0,0,0,0,0,0,0,0,0,0,0,0,0,0],"sum_hessian":[2.5540803E4,1.5125121E4,1.0415681E4,1.2633601E4,2.4915203E3,6.9094404E3,3.5062402E3,6.7548804E3,5.87872E3,2.1200002E3,3.7152002E2,5.1465605E3,1.7628801E3,2.26336E3,1.2428801E3,4.41024E3,2.3446401E3,3.5184001E3,2.36032E3,6.0480005E2,1.5152001E3,3.0592E2,6.5600006E1,3.2563203E3,1.8902401E3,4.1088004E2,1.3520001E3,1.8211201E3,4.4224002E2,6.0448004E2,6.384E2,2.13056E3,2.2796802E3,8.646401E2,1.4800001E3,1.6150402E3,1.9033601E3,9.6448004E2,1.3958401E3,4.2688004E2,1.7792001E2,1.0963201E3,4.1888004E2,9.344001E1,2.1248001E2,4.1600003E0,6.1440002E1,1.3280001E3,1.9283202E3,1.0771201E3,8.1312006E2,3.0432E2,1.06560005E2,1.06816E3,2.8384003E2,9.6000006E2,8.6112006E2,2.5280003E1,4.1696002E2,3.4048E2,2.6400003E2,4.5984003E2,1.7856001E2],"tree_param":{"num_deleted":"0","num_feature":"11","num_nodes":"63","size_leaf_vector":"1"}},{"base_weights":[-3.935759E-1,7.285291E-1,-4.2487362E-1,9.84401E-1,3.682949E-1,-4.815986E-2,-4.8890892E-1,7.556247E-1,1.0896007E0,5.6381583E-1,9.299934E-2,3.1394103E-1,-1.5466316E-1,-3.3496195E-1,-5.1328045E-1,9.6714216E-1,5.4847693E-1,1.1919647E0,9.3156576E-1,3.4361562E-1,8.199387E-1,2.771135E-1,-4.0626463E-1,5.999393E-1,1.4807357E-1,2.4791223E-1,-2.3892985E-1,-1.6881034E-1,-4.4688076E-1,-4.4546908E-1,-5.4059416E-1,1.5460634E-1,3.2692337E-1,-1.3738361E-1,1.7669281E-1,1.3382505E-2,3.6046466E-1,2.9090053E-1,3.381594E-2,-8.273182E-2,1.3261104E-1,1.24373965E-1,2.7960855E-1,1.3136356E-1,6.948233E-3,1.4851716E-1,-1.3972661E-1,2.0679332E-1,-4.4820504E-3,3.2164365E-2,1.7969832E-1,1.3699716E-1,3.707119E-2,-2.5412504E-2,-8.960758E-2,-3.4645647E-2,-8.734089E-2,-1.0618129E-1,-1.4105691E-1,-1.1586318E-1,-1.4228295E-1,-1.4865276E-1,-1.668956E-1],"categories":[],"categories_nodes":[],"categories_segments":[],"categories_sizes":[],"default_left":[0,0,0,0,0,0,0,0,0,0,0,0,0,0,0,0,0,0,0,0,0,0,0,0,0,0,0,0,0,0,0,0,0,0,0,0,0,0,0,0,0,0,0,0,0,0,0,0,0,0,0,0,0,0,0,0,0,0,0,0,0,0,0],"id":5,"left_children":[1,3,5,7,9,11,13,15,17,19,21,23,25,27,29,31,33,35,37,39,41,43,45,47,49,51,53,55,57,59,61,-1,-1,-1,-1,-1,-1,-1,-1,-1,-1,-1,-1,-1,-1,-1,-1,-1,-1,-1,-1,-1,-1,-1,-1,-1,-1,-1,-1,-1,-1,-1,-1],"loss_changes":[8.0598975E2,5.705075E1,5.383845E2,7.9274597E0,1.3957592E1,1.2514647E2,7.140088E1,4.6306763E0,2.8822021E0,8.290531E0,1.0158518E1,3.4900307E1,8.5114296E1,4.8461548E1,3.0260254E1,2.5940742E0,2.7894993E0,1.5541382E0,3.0605621E0,5.209116E0,2.773468E0,3.2738967E0,1.8311224E0,1.4870514E1,8.561282E0,1.1220428E1,1.908789E1,6.8295536E0,3.210968E0,7.8981934E0,8.043213E0,0E0,0E0,0E0,0E0,0E0,0E0,0E0,0E0,0E0,0E0,0E0,0E0,0E0,0E0,0E0,0E0,0E0,0E0,0E0,0E0,0E0,0E0,0E0,0E0,0E0,0E0,0E0,0E0,0E0,0E0,0E0,0E0],"parents":[2147483647,0,0,1,1,2,2,3,3,4,4,5,5,6,6,7,7,8,8,9,9,10,10,11,11,12,12,13,13,14,14,15,15,16,16,17,17,18,18,19,19,20,20,21,21,22,22,23,23,24,24,25,25,26,26,27,27,28,28,29,29,30,30],"right_children":[2,4,6,8,10,12,14,16,18,20,22,24,26,28,30,32,34,36,38,40,42,44,46,48,50,52,54,56,58,60,62,-1,-1,-1,-1,-1,-1,-1,-1,-1,-1,-1,-1,-1,-1,-1,-1,-1,-1,-1,-1,-1,-1,-1,-1,-1,-1,-1,-1,-1,-1,-1,-1],"split_conditions":[-2.2458696E0,-4.395039E-1,-1.1117065E0,5.186417E-1,-2.1166949E-1,-9.009195E-1,-9.175875E-1,-4.240392E-1,-1.4860914E0,2.5561252E-1,7.190943E-1,-1.957437E0,-2.2958965E0,-8.516416E-2,-1.3789743E-1,-5.8487153E-1,3.5770172E-1,-2.4616544E0,3.2819598E0,-9.5883536E-1,-6.927847E-1,-8.430425E-2,-9.901757E-1,2.6198518E0,1.4385878E0,-2.3463896E-1,-1.7879016E0,7.184755E-1,-1.4709972E0,-1.6928719E-1,-1.6928719E-1,1.5460634E-1,3.2692337E-1,-1.3738361E-1,1.7669281E-1,1.3382505E-2,3.6046466E-1,2.9090053E-1,3.381594E-2,-8.273182E-2,1.3261104E-1,1.24373965E-1,2.7960855E-1,1.3136356E-1,6.948233E-3,1.4851716E-1,-1.3972661E-1,2.0679332E-1,-4.4820504E-3,3.2164365E-2,1.7969832E-1,1.3699716E-1,3.707119E-2,-2.5412504E-2,-8.960758E-2,-3.4645647E-2,-8.734089E-2,-1.0618129E-1,-1.4105691E-1,-1.1586318E-1,-1.4228295E-1,-1.4865276E-1,-1.668956E-1],"split_indices":[5,4,4,1,0,5,5,9,4,1,4,4,4,4,4,1,2,10,1,9,10,6,9,1,0,5,4,0,5,5,5,0,0,0,0,0,0,0,0,0,0,0,0,0,0,0,0,0,0,0,0,0,0,0,0,0,0,0,0,0,0,0,0],"split_type":[0,0,0,0,0,0,0,0,0,0,0,0,0,0,0,0,0,0,0,0,0,0,0,0,0,0,0,0,0,0,0,0,0,0,0,0,0,0,0,0,0,0,0,0,0,0,0,0,0,0,0,0,0,0,0,0,0,0,0,0,0,0,0],"sum_hessian":[2.2940203E4,6.218809E2,2.2318322E4,3.6259763E2,2.592833E2,3.2428254E3,1.9075498E4,1.16792786E2,2.4580484E2,1.5099516E2,1.0828813E2,7.3657935E2,2.506246E3,2.6091467E3,1.6466352E4,5.5971626E1,6.0821163E1,1.4520723E2,1.005976E2,8.245045E1,6.8544716E1,7.943847E1,2.8849663E1,2.694174E2,4.6716196E2,4.3346588E2,2.0727803E3,1.0511484E3,1.5579982E3,4.73303E3,1.1733321E4,1.3057695E1,4.291393E1,1.9540696E0,5.8867092E1,1.2497386E0,1.4395749E2,9.5948715E1,4.6488824E0,1.1057969E1,7.139248E1,1.5865975E1,5.267874E1,4.8200714E1,3.1237755E1,1.3329554E0,2.7516706E1,2.3512175E2,3.429563E1,4.2948322E2,3.767874E1,1.6081563E2,2.7265027E2,5.795683E2,1.4932119E3,7.3339E2,3.1775842E2,3.1562897E2,1.2423693E3,1.5529417E3,3.1800881E3,3.0424797E3,8.690842E3],"tree_param":{"num_deleted":"0","num_feature":"11","num_nodes":"63","size_leaf_vector":"1"}},{"base_weights":[-2.3276302E-1,-1.5317512E-2,-3.8017973E-1,1.0929615E-1,-1.7133068E-1,-1.9938381E-1,-4.5064354E-1,1.9572003E-1,5.481549E-3,-5.2757915E-3,-2.5316355E-1,5.328738E-2,-2.4184099E-1,-3.9848396E-1,-5.078776E-1,-1.9747871E-1,2.1508256E-1,1.4936307E-1,-9.0396695E-2,2.644622E-2,-2.9009175E-1,-1.7573038E-1,-3.207601E-1,-4.3429937E-2,2.0734324E-1,-1.5137552E-1,-3.6930335E-1,-3.5405034E-1,-4.6238485E-1,-4.636896E-1,-5.265146E-1,1.6760132E-1,-6.9749005E-2,9.130809E-2,3.6316067E-2,-4.601475E-2,5.0231103E-2,-6.9762743E-3,-3.7913285E-2,3.2967716E-2,-2.0325573E-2,-9.559883E-2,2.4487479E-1,-2.0021036E-2,-6.906757E-2,-8.6984776E-2,-1.3000518E-1,1.5906654E-2,-4.7117826E-2,9.843705E-2,-2.270507E-3,-1.8191021E-2,-6.1312545E-2,-1.15217246E-1,-3.748331E-2,-7.3271014E-2,-1.0967853E-1,-1.2618035E-1,-1.4718921E-1,-1.3459529E-1,-1.7036341E-1,-1.5272042E-1,-1.6587797E-1],"categories":[],"categories_nodes":[],"categories_segments":[],"categories_sizes":[],"default_left":[0,0,0,0,0,0,0,0,0,0,0,0,0,0,0,0,0,0,0,0,0,0,0,0,0,0,0,0,0,0,0,0,0,0,0,0,0,0,0,0,0,0,0,0,0,0,0,0,0,0,0,0,0,0,0,0,0,0,0,0,0,0,0],"id":6,"left_children":[1,3,5,7,9,11,13,15,17,19,21,23,25,27,29,31,33,35,37,39,41,43,45,47,49,51,53,55,57,59,61,-1,-1,-1,-1,-1,-1,-1,-1,-1,-1,-1,-1,-1,-1,-1,-1,-1,-1,-1,-1,-1,-1,-1,-1,-1,-1,-1,-1,-1,-1,-1,-1],"loss_changes":[7.6421875E2,1.8730914E2,1.809187E2,4.8056576E1,5.8134537E1,4.2778E1,3.0316162E1,2.2296066E1,3.3596104E1,1.2777246E1,1.4944244E1,8.566085E0,3.930049E1,1.503595E1,3.7669678E0,3.7761302E0,2.3353088E1,5.3545074E0,3.5278587E0,1.0010931E1,4.739888E0,7.931587E0,5.178192E0,3.8841124E0,5.7563734E0,9.596073E0,5.057678E0,3.91922E0,2.381134E0,2.0222778E0,1.2937012E0,0E0,0E0,0E0,0E0,0E0,0E0,0E0,0E0,0E0,0E0,0E0,0E0,0E0,0E0,0E0,0E0,0E0,0E0,0E0,0E0,0E0,0E0,0E0,0E0,0E0,0E0,0E0,0E0,0E0,0E0,0E0,0E0],"parents":[2147483647,0,0,1,1,2,2,3,3,4,4,5,5,6,6,7,7,8,8,9,9,10,10,11,11,12,12,13,13,14,14,15,15,16,16,17,17,18,18,19,19,20,20,21,21,22,22,23,23,24,24,25,25,26,26,27,27,28,28,29,29,30,30],"right_children":[2,4,6,8,10,12,14,16,18,20,22,24,26,28,30,32,34,36,38,40,42,44,46,48,50,52,54,56,58,60,62,-1,-1,-1,-1,-1,-1,-1,-1,-1,-1,-1,-1,-1,-1,-1,-1,-1,-1,-1,-1,-1,-1,-1,-1,-1,-1,-1,-1,-1,-1,-1,-1],"split_conditions":[-1.5685429E-1,-6.102202E-3,-3.721909E-1,-8.1519234E-1,-1.1423631E0,-1.4709972E0,6.349639E-1,-3.4186556E0,-8.678848E-1,1.3225203E0,4.8011526E-1,7.2972727E-1,6.349639E-1,5.706044E-1,1.9332516E-1,-1.04744E0,-6.196912E-1,-3.4186556E0,-4.6375984E-1,-1.6002247E0,2.8707879E0,-7.464381E-1,1.3065392E0,-2.0130262E0,4.989127E-1,-1.0228971E0,1.5644822E0,-9.189571E-2,2.1997488E-1,1.4633965E0,9.299809E-1,1.6760132E-1,-6.9749005E-2,9.130809E-2,3.6316067E-2,-4.601475E-2,5.0231103E-2,-6.9762743E-3,-3.7913285E-2,3.2967716E-2,-2.0325573E-2,-9.559883E-2,2.4487479E-1,-2.0021036E-2,-6.906757E-2,-8.6984776E-2,-1.3000518E-1,1.5906654E-2,-4.7117826E-2,9.843705E-2,-2.270507E-3,-1.8191021E-2,-6.1312545E-2,-1.15217246E-1,-3.748331E-2,-7.3271014E-2,-1.0967853E-1,-1.2618035E-1,-1.4718921E-1,-1.3459529E-1,-1.7036341E-1,-1.5272042E-1,-1.6587797E-1],"split_indices":[4,5,5,4,4,5,4,5,5,5,5,0,4,5,5,1,5,5,5,4,1,4,5,5,2,5,9,4,4,4,5,0,0,0,0,0,0,0,0,0,0,0,0,0,0,0,0,0,0,0,0,0,0,0,0,0,0,0,0,0,0,0,0],"split_type":[0,0,0,0,0,0,0,0,0,0,0,0,0,0,0,0,0,0,0,0,0,0,0,0,0,0,0,0,0,0,0,0,0,0,0,0,0,0,0,0,0,0,0,0,0,0,0,0,0,0,0,0,0,0,0,0,0,0,0,0,0,0,0],"sum_hessian":[2.3839969E4,9.632602E3,1.4207367E4,5.355366E3,4.277236E3,3.9854177E3,1.0221949E4,2.9219812E3,2.4333848E3,1.4123553E3,2.8648804E3,5.733058E2,3.412112E3,5.352226E3,4.8697236E3,1.3670409E2,2.7852773E3,9.7287036E2,1.4605144E3,1.2716316E3,1.4072366E2,1.3369633E3,1.5279172E3,3.5263635E2,2.2066942E2,1.9969668E3,1.4151451E3,3.1608582E3,2.191368E3,1.4522761E3,3.4174475E3,5.3887997E0,1.3131528E2,1.4275881E3,1.3576891E3,5.438658E1,9.1848376E2,5.1016455E2,9.503498E2,6.742104E2,5.9742126E2,1.3787503E2,2.8486228E0,4.463852E2,8.90578E2,1.2024397E3,3.2547757E2,1.9102336E2,1.6161299E2,1.4093642E2,7.9733E1,7.371178E2,1.259849E3,1.3340264E3,8.111875E1,3.0279712E2,2.858061E3,8.9027936E2,1.3010885E3,1.2737311E3,1.7854507E2,2.0702278E3,1.3472197E3],"tree_param":{"num_deleted":"0","num_feature":"11","num_nodes":"63","size_leaf_vector":"1"}},{"base_weights":[1.7478439E-1,2.8484285E-1,-3.683997E-2,3.650998E-1,1.2770587E-1,1.3313337E-1,-1.7987752E-1,-2.5848797E-1,3.8832417E-1,2.571267E-1,1.1394313E-2,1.775609E-1,-1.2887652E-1,-1.2608941E-1,-3.4598002E-1,-2.0680057E-1,-1.6663036E-1,1.337587E-1,4.037808E-1,2.9107252E-1,-1.04961894E-1,6.942614E-2,-1.542333E-1,2.8566846E-1,1.0966458E-1,-2.0945176E-1,-2.4138875E-3,-6.0522657E-2,-2.6427916E-1,-2.9442844E-1,-4.5104408E-1,-8.644245E-2,-1.5363572E-2,-3.261361E-2,7.374559E-2,1.3105106E-1,8.9759424E-2,1.956774E-1,8.468975E-2,-6.2384006E-2,4.4626005E-2,-1.35245565E-2,2.796804E-2,-2.6890913E-2,-8.631646E-2,-9.431195E-2,9.1214955E-2,6.048067E-2,1.245506E-2,-4.0324166E-2,-9.514441E-2,8.11963E-2,-1.7776217E-2,8.882592E-3,-3.4093395E-2,-7.035369E-2,-1.07198566E-1,-9.272252E-2,5.7050463E-2,-1.035578E-1,-1.4652376E-1],"categories":[],"categories_nodes":[],"categories_segments":[],"categories_sizes":[],"default_left":[0,0,0,0,0,0,0,0,0,0,0,0,0,0,0,0,0,0,0,0,0,0,0,0,0,0,0,0,0,0,0,0,0,0,0,0,0,0,0,0,0,0,0,0,0,0,0,0,0,0,0,0,0,0,0,0,0,0,0,0,0],"id":7,"left_children":[1,3,5,7,9,11,13,15,17,19,21,23,25,27,29,31,-1,33,35,37,39,41,43,45,47,49,51,53,55,57,59,-1,-1,-1,-1,-1,-1,-1,-1,-1,-1,-1,-1,-1,-1,-1,-1,-1,-1,-1,-1,-1,-1,-1,-1,-1,-1,-1,-1,-1,-1],"loss_changes":[6.206577E2,2.2103748E2,2.2170288E2,1.6814587E2,8.9234955E1,4.853093E1,4.419635E1,6.2889614E0,4.3964355E1,3.451924E1,3.0030556E1,2.6124825E1,6.1616774E0,3.3889004E1,6.424469E0,4.5029173E0,0E0,1.746719E1,3.63291E1,7.9460297E0,6.334319E0,6.309556E0,6.964733E0,1.5250626E1,1.3715343E1,2.9424133E0,3.6847348E0,1.2160762E1,3.250595E0,5.843727E0,1.4002457E0,0E0,0E0,0E0,0E0,0E0,0E0,0E0,0E0,0E0,0E0,0E0,0E0,0E0,0E0,0E0,0E0,0E0,0E0,0E0,0E0,0E0,0E0,0E0,0E0,0E0,0E0,0E0,0E0,0E0,0E0],"parents":[2147483647,0,0,1,1,2,2,3,3,4,4,5,5,6,6,7,7,8,8,9,9,10,10,11,11,12,12,13,13,14,14,15,15,17,17,18,18,19,19,20,20,21,21,22,22,23,23,24,24,25,25,26,26,27,27,28,28,29,29,30,30],"right_children":[2,4,6,8,10,12,14,16,18,20,22,24,26,28,30,32,-1,34,36,38,40,42,44,46,48,50,52,54,56,58,60,-1,-1,-1,-1,-1,-1,-1,-1,-1,-1,-1,-1,-1,-1,-1,-1,-1,-1,-1,-1,-1,-1,-1,-1,-1,-1,-1,-1,-1,-1],"split_conditions":[5.0517315E-1,3.2645524E-1,1.1445085E-1,-2.091694E0,-3.290211E-1,1.3593957E0,1.21279E0,2.4203124E0,-2.0813282E0,1.5448709E0,1.0825734E0,-6.811619E-1,3.0489826E-1,9.650017E-1,9.631403E-1,-3.0213864E0,-1.6663036E-1,-9.175875E-1,1.1238511E-1,-1.5486465E0,6.622167E-1,4.2211682E-1,1.5706717E0,-3.4186556E0,-6.59312E-2,-3.6364812E-1,-1.1523736E0,7.108371E-1,9.980794E-1,1.6711241E0,1.3066545E0,-8.644245E-2,-1.5363572E-2,-3.261361E-2,7.374559E-2,1.3105106E-1,8.9759424E-2,1.956774E-1,8.468975E-2,-6.2384006E-2,4.4626005E-2,-1.35245565E-2,2.796804E-2,-2.6890913E-2,-8.631646E-2,-9.431195E-2,9.1214955E-2,6.048067E-2,1.245506E-2,-4.0324166E-2,-9.514441E-2,8.11963E-2,-1.7776217E-2,8.882592E-3,-3.4093395E-2,-7.035369E-2,-1.07198566E-1,-9.272252E-2,5.7050463E-2,-1.035578E-1,-1.4652376E-1],"split_indices":[4,5,5,5,4,4,4,1,4,5,5,5,6,5,5,5,0,5,4,2,0,5,5,5,2,5,5,4,4,0,4,0,0,0,0,0,0,0,0,0,0,0,0,0,0,0,0,0,0,0,0,0,0,0,0,0,0,0,0,0,0],"split_type":[0,0,0,0,0,0,0,0,0,0,0,0,0,0,0,0,0,0,0,0,0,0,0,0,0,0,0,0,0,0,0,0,0,0,0,0,0,0,0,0,0,0,0,0,0,0,0,0,0,0,0,0,0,0,0,0,0,0,0,0,0],"sum_hessian":[2.664646E4,1.7529588E4,9.116873E3,1.1602396E4,5.927191E3,4.1661973E3,4.950676E3,4.162309E2,1.1186166E4,2.8049214E3,3.1222695E3,3.5624546E3,6.0374286E2,3.7410044E3,1.2096713E3,3.559667E2,6.0264206E1,6.40872E2,1.0545294E4,2.5646787E3,2.4024275E2,2.3125796E3,8.0968994E2,1.3730363E3,2.1894182E3,3.6837668E2,2.3536621E2,2.5381628E3,1.2028416E3,8.140469E2,3.956244E2,2.3319937E2,1.2276733E2,2.0257605E2,4.3829593E2,8.0102656E3,2.5350278E3,5.908063E1,2.5055981E3,1.7100928E2,6.923347E1,3.978033E2,1.9147762E3,5.467709E2,2.6291907E2,4.0332108E1,1.3327042E3,9.311932E2,1.2582251E3,2.1843152E2,1.4994516E2,3.9903324E1,1.9546289E2,9.4138E2,1.5967828E3,9.1397687E2,2.8886462E2,7.905163E2,2.3530624E1,1.05896095E2,2.897283E2],"tree_param":{"num_deleted":"0","num_feature":"11","num_nodes":"61","size_leaf_vector":"1"}},{"base_weights":[3.2899287E-1,-1.411068E-2,4.0143874E-1,-2.0389278E-1,1.8673757E-1,1.1044548E-1,4.3335992E-1,-3.179092E-1,-7.1328305E-2,-1.01431925E-2,2.8281263E-1,-2.8885603E-2,3.1978238E-1,3.376462E-1,4.6154866E-1,-4.4623002E-1,-2.4884687E-1,-3.9064947E-1,-2.8652003E-2,-1.7665888E-1,1.3406579E-1,2.1068476E-1,4.1589028E-1,-2.4170598E-1,3.024312E-2,-1.4840195E-1,3.6179194E-1,1.878085E-1,4.202524E-1,4.782026E-1,2.4989134E-1,-1.6294795E-1,-1.2130074E-1,-1.392301E-1,-6.342392E-2,-1.3849358E-1,-5.6805134E-2,1.0498334E-1,-1.7759379E-2,-2.2750292E-2,-8.317704E-2,-1.1517517E-2,7.0662014E-2,2.8698493E-2,8.1589736E-2,1.2896696E-1,-6.082427E-2,-4.123226E-3,-9.024854E-2,-2.856344E-2,3.384453E-2,-1.2172363E-1,-2.638336E-3,3.4807133E-3,1.1652849E-1,2.9446092E-2,8.110416E-2,8.901066E-2,1.3532116E-1,1.4576338E-1,7.868289E-2,8.632392E-2,-3.9362434E-2],"categories":[],"categories_nodes":[],"categories_segments":[],"categories_sizes":[],"default_left":[0,0,0,0,0,0,0,0,0,0,0,0,0,0,0,0,0,0,0,0,0,0,0,0,0,0,0,0,0,0,0,0,0,0,0,0,0,0,0,0,0,0,0,0,0,0,0,0,0,0,0,0,0,0,0,0,0,0,0,0,0,0,0],"id":8,"left_children":[1,3,5,7,9,11,13,15,17,19,21,23,25,27,29,31,33,35,37,39,41,43,45,47,49,51,53,55,57,59,61,-1,-1,-1,-1,-1,-1,-1,-1,-1,-1,-1,-1,-1,-1,-1,-1,-1,-1,-1,-1,-1,-1,-1,-1,-1,-1,-1,-1,-1,-1,-1,-1],"loss_changes":[6.948506E2,1.8583968E2,2.1434692E2,3.786566E1,4.4807724E1,6.659673E1,5.5960693E1,1.1829498E1,1.5801878E1,1.8700657E1,1.5192604E1,1.7267075E1,1.7998505E1,5.85365E1,5.650586E1,1.6896439E0,6.9781914E0,1.8665047E0,1.1870525E1,3.6446133E0,7.3131723E0,7.2652054E0,4.924309E0,4.0166473E0,1.1139004E1,2.7209451E0,7.8078995E0,1.2440704E1,1.148645E1,2.4552002E1,1.6972878E1,0E0,0E0,0E0,0E0,0E0,0E0,0E0,0E0,0E0,0E0,0E0,0E0,0E0,0E0,0E0,0E0,0E0,0E0,0E0,0E0,0E0,0E0,0E0,0E0,0E0,0E0,0E0,0E0,0E0,0E0,0E0,0E0],"parents":[2147483647,0,0,1,1,2,2,3,3,4,4,5,5,6,6,7,7,8,8,9,9,10,10,11,11,12,12,13,13,14,14,15,15,16,16,17,17,18,18,19,19,20,20,21,21,22,22,23,23,24,24,25,25,26,26,27,27,28,28,29,29,30,30],"right_children":[2,4,6,8,10,12,14,16,18,20,22,24,26,28,30,32,34,36,38,40,42,44,46,48,50,52,54,56,58,60,62,-1,-1,-1,-1,-1,-1,-1,-1,-1,-1,-1,-1,-1,-1,-1,-1,-1,-1,-1,-1,-1,-1,-1,-1,-1,-1,-1,-1,-1,-1,-1,-1],"split_conditions":[-8.1519234E-1,-1.19994186E-1,-1.104131E0,-6.196912E-1,-1.6002247E0,5.0517315E-1,-1.416238E-1,-1.7292162E0,-2.2958965E0,4.69569E-1,7.296038E-1,-1.9105752E0,-3.0213864E0,-1.4335288E-1,1.392076E0,-1.7600348E0,-2.0130262E0,6.4012367E-1,-5.6939703E-1,3.2004148E-1,-2.1106708E0,-1.2288467E0,2.2867458E0,-6.4751434E-1,-1.965512E-1,-1.2555636E-2,-1.0666994E0,-4.8643E-1,-6.4751434E-1,1.6058818E0,1.4007685E0,-1.6294795E-1,-1.2130074E-1,-1.392301E-1,-6.342392E-2,-1.3849358E-1,-5.6805134E-2,1.0498334E-1,-1.7759379E-2,-2.2750292E-2,-8.317704E-2,-1.1517517E-2,7.0662014E-2,2.8698493E-2,8.1589736E-2,1.2896696E-1,-6.082427E-2,-4.123226E-3,-9.024854E-2,-2.856344E-2,3.384453E-2,-1.2172363E-1,-2.638336E-3,3.4807133E-3,1.1652849E-1,2.9446092E-2,8.110416E-2,8.901066E-2,1.3532116E-1,1.4576338E-1,7.868289E-2,8.632392E-2,-3.9362434E-2],"split_indices":[4,5,5,5,4,4,4,4,4,5,5,5,5,5,5,5,5,2,5,10,4,4,5,10,4,10,9,5,10,4,4,0,0,0,0,0,0,0,0,0,0,0,0,0,0,0,0,0,0,0,0,0,0,0,0,0,0,0,0,0,0,0,0],"split_type":[0,0,0,0,0,0,0,0,0,0,0,0,0,0,0,0,0,0,0,0,0,0,0,0,0,0,0,0,0,0,0,0,0,0,0,0,0,0,0,0,0,0,0,0,0,0,0,0,0,0,0,0,0,0,0,0,0,0,0,0,0,0,0],"sum_hessian":[2.795333E4,4.873456E3,2.3079873E4,2.50575E3,2.3677058E3,2.281963E3,2.079791E4,1.346366E3,1.1593842E3,7.76784E2,1.5909219E3,1.3705862E3,9.113768E2,4.734633E3,1.6063277E4,4.6916867E2,8.771973E2,1.3571988E2,1.02366425E3,3.6040518E2,4.1637885E2,1.0334026E3,5.575193E2,2.9732928E2,1.073257E3,7.483454E1,8.3654224E2,1.6837635E3,3.0508694E3,1.489039E4,1.1728876E3,1.3797458E2,3.311941E2,1.2826208E2,7.4893524E2,9.937732E1,3.6342552E1,7.564449E1,9.480197E2,1.8087572E2,1.7952945E2,1.544721E2,2.6190674E2,3.6008743E2,6.733152E2,5.454803E2,1.2038948E1,6.148614E1,2.3584314E2,4.2594708E2,6.473098E2,2.5648819E1,4.918572E1,5.9233345E1,7.7730884E2,8.0813916E2,8.7562445E2,6.111975E2,2.4396719E3,1.4378059E4,5.1233154E2,1.067133E3,1.0575454E2],"tree_param":{"num_deleted":"0","num_feature":"11","num_nodes":"63","size_leaf_vector":"1"}},{"base_weights":[2.829065E-2,-2.2986618E-1,3.1963375E-1,-3.6876643E-1,4.9421214E-2,1.3959973E-1,6.3131744E-1,-4.5666963E-1,-2.517285E-1,-5.8108E-2,4.145379E-1,1.7558914E-2,3.6032775E-1,5.106831E-1,8.032401E-1,-5.1959276E-1,-4.05034E-1,-3.032965E-1,-1.085192E-1,-2.907988E-1,4.299204E-2,3.1917843E-1,8.627991E-1,-9.0728186E-2,1.918506E-1,1.7262252E-1,4.5868537E-1,4.7275615E-1,8.4880733E-1,6.6520494E-1,9.2212164E-1,-1.6159558E-1,-1.3379224E-1,-1.5090963E-1,-1.07890844E-1,-1.1038576E-1,-7.448064E-2,1.404068E-2,-4.298284E-2,1.9830804E-2,-9.462825E-2,-1.02874115E-2,4.336282E-2,-1.3706264E-2,1.2792847E-1,1.7055939E-1,3.0074918E-1,1.5963194E-1,-3.2259706E-2,4.405754E-2,9.3175374E-2,1.0424212E-1,2.2256002E-2,1.0245231E-1,1.7750286E-1,3.119199E-1,1.3978125E-1,2.3677705E-1,3.6528206E-1,1.7586552E-1,2.4418263E-1,2.6746786E-1,3.5385785E-1],"categories":[],"categories_nodes":[],"categories_segments":[],"categories_sizes":[],"default_left":[0,0,0,0,0,0,0,0,0,0,0,0,0,0,0,0,0,0,0,0,0,0,0,0,0,0,0,0,0,0,0,0,0,0,0,0,0,0,0,0,0,0,0,0,0,0,0,0,0,0,0,0,0,0,0,0,0,0,0,0,0,0,0],"id":9,"left_children":[1,3,5,7,9,11,13,15,17,19,21,23,25,27,29,31,33,35,37,39,41,43,45,47,49,51,53,55,57,59,61,-1,-1,-1,-1,-1,-1,-1,-1,-1,-1,-1,-1,-1,-1,-1,-1,-1,-1,-1,-1,-1,-1,-1,-1,-1,-1,-1,-1,-1,-1,-1,-1],"loss_changes":[1.9250411E3,5.264538E2,6.746494E2,9.312622E1,1.7702103E2,2.0534622E2,9.089197E1,1.660205E1,2.869162E1,8.196145E1,4.357216E1,9.26876E1,5.003E1,3.2809937E1,2.9145874E1,3.0273438E0,1.2483887E1,1.0081421E1,5.574355E0,9.296234E0,1.9070208E1,3.318061E1,6.802841E0,3.1760986E1,1.0007706E1,1.6063894E1,2.754187E1,8.52655E0,4.747757E0,9.423584E0,6.5931396E0,0E0,0E0,0E0,0E0,0E0,0E0,0E0,0E0,0E0,0E0,0E0,0E0,0E0,0E0,0E0,0E0,0E0,0E0,0E0,0E0,0E0,0E0,0E0,0E0,0E0,0E0,0E0,0E0,0E0,0E0,0E0,0E0],"parents":[2147483647,0,0,1,1,2,2,3,3,4,4,5,5,6,6,7,7,8,8,9,9,10,10,11,11,12,12,13,13,14,14,15,15,16,16,17,17,18,18,19,19,20,20,21,21,22,22,23,23,24,24,25,25,26,26,27,27,28,28,29,29,30,30],"right_children":[2,4,6,8,10,12,14,16,18,20,22,24,26,28,30,32,34,36,38,40,42,44,46,48,50,52,54,56,58,60,62,-1,-1,-1,-1,-1,-1,-1,-1,-1,-1,-1,-1,-1,-1,-1,-1,-1,-1,-1,-1,-1,-1,-1,-1,-1,-1,-1,-1,-1,-1,-1,-1],"split_conditions":[3.0643094E-1,3.991642E-1,5.785498E-1,-3.528728E-1,1.2736816E0,9.9925303E-1,9.5372367E-1,-1.0623788E0,2.5750779E-2,-7.7288854E-1,1.8835156E0,2.5750779E-2,-3.721909E-1,1.7559692E0,1.008672E0,6.560698E-3,-7.7057374E-1,-6.196912E-1,1.1663007E-1,4.2211682E-1,-7.820246E-2,-9.549942E-1,-4.817116E-1,-1.6481434E0,7.8294456E-1,-3.1668586E-1,1.3066545E0,-1.7157463E0,2.2867458E0,1.4003882E0,1.6587073E0,-1.6159558E-1,-1.3379224E-1,-1.5090963E-1,-1.07890844E-1,-1.1038576E-1,-7.448064E-2,1.404068E-2,-4.298284E-2,1.9830804E-2,-9.462825E-2,-1.02874115E-2,4.336282E-2,-1.3706264E-2,1.2792847E-1,1.7055939E-1,3.0074918E-1,1.5963194E-1,-3.2259706E-2,4.405754E-2,9.3175374E-2,1.0424212E-1,2.2256002E-2,1.0245231E-1,1.7750286E-1,3.119199E-1,1.3978125E-1,2.3677705E-1,3.6528206E-1,1.7586552E-1,2.4418263E-1,2.6746786E-1,3.5385785E-1],"split_indices":[4,5,5,4,5,4,4,4,5,4,5,5,5,5,5,5,5,5,5,5,4,4,0,0,4,0,4,9,5,4,4,0,0,0,0,0,0,0,0,0,0,0,0,0,0,0,0,0,0,0,0,0,0,0,0,0,0,0,0,0,0,0,0],"split_type":[0,0,0,0,0,0,0,0,0,0,0,0,0,0,0,0,0,0,0,0,0,0,0,0,0,0,0,0,0,0,0,0,0,0,0,0,0,0,0,0,0,0,0,0,0,0,0,0,0,0,0,0,0,0,0,0,0,0,0,0,0,0,0],"sum_hessian":[2.5592818E4,1.3569343E4,1.2023477E4,9.062097E3,4.507246E3,7.6222036E3,4.4012725E3,5.1735312E3,3.8885652E3,3.4824756E3,1.0247705E3,4.9090586E3,2.7131453E3,2.588765E3,1.8125077E3,2.327806E3,2.8457253E3,2.8582317E3,1.0303335E3,1.0542191E3,2.4282563E3,8.4642163E2,1.7834889E2,3.0281523E3,1.880906E3,9.3381396E2,1.7793314E3,2.329829E3,2.5893576E2,8.4174255E2,9.7076514E2,1.8440756E3,4.837303E2,8.977399E2,1.9479855E3,1.311532E3,1.5466997E3,1.8833905E2,8.4199445E2,6.794361E1,9.862755E2,1.379258E3,1.0489984E3,1.9241064E2,6.54011E2,5.904432E1,1.1930457E2,7.874801E1,2.9494043E3,1.3656528E3,5.152531E2,3.3544116E2,5.983728E2,9.4779803E2,8.315334E2,2.588625E1,2.3039429E3,2.2564127E2,3.3294495E1,5.530093E2,2.8873328E2,8.717268E2,9.90383E1],"tree_param":{"num_deleted":"0","num_feature":"11","num_nodes":"63","size_leaf_vector":"1"}},{"base_weights":[-3.5947692E-1,1.3636931E-2,-4.3827072E-1,3.7470573E-1,-1.4006448E-1,3.7552437E-1,-4.5845455E-1,7.607067E-1,2.3608302E-1,1.6821983E-1,-2.2111431E-1,2.9321054E-1,7.667696E-1,-3.030604E-1,-4.840884E-1,5.5485266E-1,8.400437E-1,8.3983004E-1,1.8672343E-1,3.467146E-1,3.201766E-2,-7.659872E-2,-2.6853493E-1,3.4202805E-1,-1.6908078E-1,8.1689066E-1,-1.4585544E-1,-1.4735551E-1,-4.1159165E-1,-4.1271356E-1,-5.1286954E-1,2.5666848E-1,1.0367503E-1,2.5451228E-1,-2.7560197E-2,2.0210582E-1,3.5246614E-1,5.215169E-2,3.3142903E-1,3.5729446E-2,1.4093488E-1,3.182317E-2,-8.125229E-2,2.2725502E-1,-2.9573023E-2,-6.896581E-2,-1.2704524E-1,1.3615254E-1,6.2422194E-2,-7.033706E-2,1.708307E-1,2.6337394E-1,1.6384346E-2,-1.5515825E-1,1.2883891E-1,-4.7437668E-2,1.5378854E-1,-9.45262E-2,-1.3091126E-1,-1.14169516E-1,-1.4241755E-1,-1.3905971E-1,-1.5912516E-1],"categories":[],"categories_nodes":[],"categories_segments":[],"categories_sizes":[],"default_left":[0,0,0,0,0,0,0,0,0,0,0,0,0,0,0,0,0,0,0,0,0,0,0,0,0,0,0,0,0,0,0,0,0,0,0,0,0,0,0,0,0,0,0,0,0,0,0,0,0,0,0,0,0,0,0,0,0,0,0,0,0,0,0],"id":10,"left_children":[1,3,5,7,9,11,13,15,17,19,21,23,25,27,29,31,33,35,37,39,41,43,45,47,49,51,53,55,57,59,61,-1,-1,-1,-1,-1,-1,-1,-1,-1,-1,-1,-1,-1,-1,-1,-1,-1,-1,-1,-1,-1,-1,-1,-1,-1,-1,-1,-1,-1,-1,-1,-1],"loss_changes":[6.066492E2,1.9977505E2,2.8001294E2,5.7332153E1,6.312778E1,1.3071812E1,6.6076904E1,4.1648254E0,2.3453201E1,1.2781802E1,1.3684013E1,7.792515E0,3.3735275E0,3.976677E1,2.9101074E1,4.853592E0,1.6517334E0,2.525772E0,8.486164E0,6.3209133E0,6.7478724E0,9.157833E0,8.917389E0,4.553585E0,1.7463099E0,3.096264E0,1.1946896E0,6.9729233E0,3.1821594E0,8.004211E0,8.553955E0,0E0,0E0,0E0,0E0,0E0,0E0,0E0,0E0,0E0,0E0,0E0,0E0,0E0,0E0,0E0,0E0,0E0,0E0,0E0,0E0,0E0,0E0,0E0,0E0,0E0,0E0,0E0,0E0,0E0,0E0,0E0,0E0],"parents":[2147483647,0,0,1,1,2,2,3,3,4,4,5,5,6,6,7,7,8,8,9,9,10,10,11,11,12,12,13,13,14,14,15,15,16,16,17,17,18,18,19,19,20,20,21,21,22,22,23,23,24,24,25,25,26,26,27,27,28,28,29,29,30,30],"right_children":[2,4,6,8,10,12,14,16,18,20,22,24,26,28,30,32,34,36,38,40,42,44,46,48,50,52,54,56,58,60,62,-1,-1,-1,-1,-1,-1,-1,-1,-1,-1,-1,-1,-1,-1,-1,-1,-1,-1,-1,-1,-1,-1,-1,-1,-1,-1,-1,-1,-1,-1,-1,-1],"split_conditions":[-1.0249923E0,-9.009195E-1,-2.2458696E0,-2.091694E0,-2.1764936E0,1.6372715E0,-9.175875E-1,5.0050175E-1,-2.9616082E0,-2.6388388E0,-1.7879016E0,1.0588515E0,3.2819598E0,-8.516416E-2,-1.3789743E-1,-1.8484353E0,-1.1117065E0,-1.0642813E0,1.7611381E0,-2.7527755E-1,6.57781E-1,-1.6481434E0,7.408595E-1,-3.4186556E0,1.3335351E0,5.534498E-1,1.963519E-1,1.7011287E0,-1.4709972E0,4.5116472E-1,-1.6928719E-1,2.5666848E-1,1.0367503E-1,2.5451228E-1,-2.7560197E-2,2.0210582E-1,3.5246614E-1,5.215169E-2,3.3142903E-1,3.5729446E-2,1.4093488E-1,3.182317E-2,-8.125229E-2,2.2725502E-1,-2.9573023E-2,-6.896581E-2,-1.2704524E-1,1.3615254E-1,6.2422194E-2,-7.033706E-2,1.708307E-1,2.6337394E-1,1.6384346E-2,-1.5515825E-1,1.2883891E-1,-4.7437668E-2,1.5378854E-1,-9.45262E-2,-1.3091126E-1,-1.14169516E-1,-1.4241755E-1,-1.3905971E-1,-1.5912516E-1],"split_indices":[4,5,5,5,4,1,5,1,4,4,4,4,1,4,4,4,4,5,0,7,5,0,5,5,7,0,7,0,5,5,5,0,0,0,0,0,0,0,0,0,0,0,0,0,0,0,0,0,0,0,0,0,0,0,0,0,0,0,0,0,0,0,0],"split_type":[0,0,0,0,0,0,0,0,0,0,0,0,0,0,0,0,0,0,0,0,0,0,0,0,0,0,0,0,0,0,0,0,0,0,0,0,0,0,0,0,0,0,0,0,0,0,0,0,0,0,0,0,0,0,0,0,0,0,0,0,0,0,0],"sum_hessian":[2.0633785E4,3.5978132E3,1.703597E4,1.073815E3,2.5239983E3,4.1187604E2,1.6624096E4,2.8255124E2,7.9126373E2,5.2521063E2,1.9987876E3,3.4172925E2,7.014679E1,2.355813E3,1.4268282E4,8.082633E1,2.017249E2,5.8590714E1,7.3267303E2,2.2664447E2,2.9856613E2,4.9447556E2,1.504312E3,3.0932498E2,3.240428E1,6.6594345E1,3.5524378E0,9.6858514E2,1.3872279E3,4.1045903E3,1.0163691E4,3.1899746E1,4.8926586E1,2.0002647E2,1.6984208E0,4.118103E1,1.7409685E1,7.237053E2,8.967666E0,8.022854E1,1.4641594E2,2.4042383E2,5.8142315E1,1.1835221E1,4.8264035E2,1.2059868E3,2.9832516E2,1.672939E2,1.4203107E2,3.0396048E1,2.0082343E0,6.1517956E1,5.0763917E0,2.220347E0,1.332091E0,9.537812E2,1.4804006E1,2.8622403E2,1.1010039E3,2.7078853E3,1.3967051E3,2.6737002E3,7.4899917E3],"tree_param":{"num_deleted":"0","num_feature":"11","num_nodes":"63","size_leaf_vector":"1"}},{"base_weights":[-2.0029959E-1,-2.132852E-2,-3.532769E-1,8.4010966E-2,-1.5880944E-1,-1.851789E-1,-4.241792E-1,1.9781534E-1,2.5194526E-2,-2.721399E-2,-2.4867082E-1,-4.4292107E-2,-2.5153002E-1,-3.7873203E-1,-4.8368844E-1,-1.5307084E-1,2.2802328E-1,1.502279E-1,-6.221172E-2,3.0879848E-4,-2.9123768E-1,-1.5222774E-1,-2.853354E-1,-1.779756E-1,3.729754E-2,-1.6978574E-1,-3.6047742E-1,-3.5155252E-1,-4.7298464E-1,-4.3764398E-1,-5.023926E-1,-7.247846E-2,8.3243206E-2,1.0364095E-1,5.345872E-2,5.8193427E-2,1.4892089E-2,-4.2055406E-2,-1.139767E-2,2.5218517E-2,-2.1624576E-2,-9.3927905E-2,1.8188648E-1,-1.4805374E-2,-7.9045944E-2,-7.849401E-2,-1.1633842E-1,-8.145363E-3,-8.63453E-2,3.912825E-2,-5.5025842E-2,-9.602006E-2,-4.3182816E-2,-1.12203255E-1,-4.290982E-2,-9.544306E-2,-1.1254449E-1,4.4342436E-2,-1.4237486E-1,-8.7423265E-2,-1.3502403E-1,-1.477381E-1,-1.6544494E-1],"categories":[],"categories_nodes":[],"categories_segments":[],"categories_sizes":[],"default_left":[0,0,0,0,0,0,0,0,0,0,0,0,0,0,0,0,0,0,0,0,0,0,0,0,0,0,0,0,0,0,0,0,0,0,0,0,0,0,0,0,0,0,0,0,0,0,0,0,0,0,0,0,0,0,0,0,0,0,0,0,0,0,0],"id":11,"left_children":[1,3,5,7,9,11,13,15,17,19,21,23,25,27,29,31,33,35,37,39,41,43,45,47,49,51,53,55,57,59,61,-1,-1,-1,-1,-1,-1,-1,-1,-1,-1,-1,-1,-1,-1,-1,-1,-1,-1,-1,-1,-1,-1,-1,-1,-1,-1,-1,-1,-1,-1,-1,-1],"loss_changes":[6.1221063E2,1.4926918E2,1.436123E2,3.9057636E1,5.2868332E1,3.3439346E1,2.2747925E1,2.1109756E1,4.206914E1,1.3192534E1,9.351349E0,1.2516007E1,2.1601898E1,1.2160706E1,2.9388428E0,6.0967216E0,1.0654045E1,6.9600105E0,4.273589E0,9.980113E0,3.5516987E0,8.388039E0,4.568054E0,7.196307E0,1.46807375E1,5.358612E0,3.0124054E0,2.8279724E0,1.1358643E0,1.8097687E0,9.968262E-1,0E0,0E0,0E0,0E0,0E0,0E0,0E0,0E0,0E0,0E0,0E0,0E0,0E0,0E0,0E0,0E0,0E0,0E0,0E0,0E0,0E0,0E0,0E0,0E0,0E0,0E0,0E0,0E0,0E0,0E0,0E0,0E0],"parents":[2147483647,0,0,1,1,2,2,3,3,4,4,5,5,6,6,7,7,8,8,9,9,10,10,11,11,12,12,13,13,14,14,15,15,16,16,17,17,18,18,19,19,20,20,21,21,22,22,23,23,24,24,25,25,26,26,27,27,28,28,29,29,30,30],"right_children":[2,4,6,8,10,12,14,16,18,20,22,24,26,28,30,32,34,36,38,40,42,44,46,48,50,52,54,56,58,60,62,-1,-1,-1,-1,-1,-1,-1,-1,-1,-1,-1,-1,-1,-1,-1,-1,-1,-1,-1,-1,-1,-1,-1,-1,-1,-1,-1,-1,-1,-1,-1,-1],"split_conditions":[-8.516416E-2,-6.102202E-3,-3.6364812E-1,-1.2026635E0,-9.087954E-1,-1.1523736E0,7.36364E-1,-2.091694E0,-8.678848E-1,1.3225203E0,3.0014694E-1,-2.1166949E-1,6.5624547E-1,9.631403E-1,1.8536255E-1,-1.4860914E0,4.989127E-1,-3.528728E-1,-6.1298203E-1,-1.5173523E0,2.8707879E0,-8.4149614E-2,1.1741346E0,-1.0442994E0,8.827186E-1,-9.805394E-1,1.5644822E0,1.8536255E-1,-4.372866E0,-8.605944E-1,2.767758E-1,-7.247846E-2,8.3243206E-2,1.0364095E-1,5.345872E-2,5.8193427E-2,1.4892089E-2,-4.2055406E-2,-1.139767E-2,2.5218517E-2,-2.1624576E-2,-9.3927905E-2,1.8188648E-1,-1.4805374E-2,-7.9045944E-2,-7.849401E-2,-1.1633842E-1,-8.145363E-3,-8.63453E-2,3.912825E-2,-5.5025842E-2,-9.602006E-2,-4.3182816E-2,-1.12203255E-1,-4.290982E-2,-9.544306E-2,-1.1254449E-1,4.4342436E-2,-1.4237486E-1,-8.7423265E-2,-1.3502403E-1,-1.477381E-1,-1.6544494E-1],"split_indices":[4,5,5,4,4,5,4,5,5,5,5,0,4,5,5,4,2,4,0,4,1,0,5,0,4,0,9,5,2,9,1,0,0,0,0,0,0,0,0,0,0,0,0,0,0,0,0,0,0,0,0,0,0,0,0,0,0,0,0,0,0,0,0],"split_type":[0,0,0,0,0,0,0,0,0,0,0,0,0,0,0,0,0,0,0,0,0,0,0,0,0,0,0,0,0,0,0,0,0,0,0,0,0,0,0,0,0,0,0,0,0,0,0,0,0,0,0,0,0,0,0,0,0,0,0,0,0,0,0],"sum_hessian":[2.2360266E4,1.0305179E4,1.2055087E4,5.8348433E3,4.470336E3,3.5773572E3,8.47773E3,1.9872788E3,3.8475645E3,1.8144738E3,2.6558623E3,1.1458922E3,2.431465E3,4.810965E3,3.6667651E3,1.5720192E2,1.8300769E3,1.5827478E3,2.2648167E3,1.6440869E3,1.7038676E2,7.329778E2,1.9228844E3,4.3385144E2,7.120408E2,1.3906243E3,1.0408407E3,3.7378232E3,1.0731416E3,1.066278E3,2.6004873E3,1.3075629E2,2.6445625E1,5.433751E2,1.2867018E3,1.1023545E3,4.8039328E2,5.35624E2,1.7291926E3,7.621506E2,8.819364E2,1.6697205E2,3.4147139E0,3.81585E2,3.513928E2,1.564682E3,3.5820242E2,1.833459E2,2.5050552E2,5.0103973E2,2.1100105E2,2.0237842E2,1.1882458E3,9.7917804E2,6.1662632E1,1.553179E3,2.1846443E3,2.5207412E0,1.0706208E3,8.5487045E1,9.8079083E2,2.1720564E3,4.28431E2],"tree_param":{"num_deleted":"0","num_feature":"11","num_nodes":"63","size_leaf_vector":"1"}},{"base_weights":[1.4046548E-1,2.103233E-1,-4.983638E-2,2.560887E-1,5.040302E-2,8.899288E-2,-1.7294754E-1,-2.0947957E-1,2.685859E-1,1.5771392E-1,-5.2285906E-2,1.2833868E-1,-1.05145335E-1,-1.2273521E-1,-3.0237356E-1,-1.6348615E-1,-5.2609473E-1,2.9733965E-1,1.9655491E-1,1.92072E-1,-9.2687994E-2,4.1069156E-3,-1.470425E-1,3.4456939E-1,1.0083692E-1,-1.7934045E-1,6.7863655E-3,-7.200795E-2,-2.4631058E-1,-2.533236E-1,-4.0882078E-1,-5.1520582E-2,2.2549272E-1,-9.5064536E-2,-1.6263582E-1,1.35513665E-2,9.2087135E-2,1.02770075E-1,3.6989775E-2,6.063816E-2,-9.441082E-2,5.052223E-2,-5.2871943E-2,1.0487783E-1,-3.5642472E-3,-3.0421285E-2,-7.343437E-2,5.9852097E-2,2.734108E-1,5.150495E-2,1.1271988E-2,-4.412397E-2,-1.2198112E-1,6.769592E-2,-1.2552036E-2,-1.1763053E-2,-3.775374E-2,9.241176E-3,-7.7605486E-2,-8.033846E-2,5.3966217E-2,-8.860577E-2,-1.3514063E-1],"categories":[],"categories_nodes":[],"categories_segments":[],"categories_sizes":[],"default_left":[0,0,0,0,0,0,0,0,0,0,0,0,0,0,0,0,0,0,0,0,0,0,0,0,0,0,0,0,0,0,0,0,0,0,0,0,0,0,0,0,0,0,0,0,0,0,0,0,0,0,0,0,0,0,0,0,0,0,0,0,0,0,0],"id":12,"left_children":[1,3,5,7,9,11,13,15,17,19,21,23,25,27,29,31,33,35,37,39,41,43,45,47,49,51,53,55,57,59,61,-1,-1,-1,-1,-1,-1,-1,-1,-1,-1,-1,-1,-1,-1,-1,-1,-1,-1,-1,-1,-1,-1,-1,-1,-1,-1,-1,-1,-1,-1,-1,-1],"loss_changes":[3.6424524E2,1.4666711E2,1.2577015E2,9.071686E1,4.9161522E1,2.6433521E1,2.5308006E1,5.853813E0,3.1371704E1,1.878529E1,1.2184503E1,1.7070282E1,4.8463182E0,1.7606827E1,5.5846176E0,2.8286543E0,1.5354156E-4,2.6284607E1,4.6297882E1,9.839943E0,5.786147E0,7.904911E0,3.7698975E0,2.6469791E1,1.1437109E1,2.5127516E0,2.4947999E0,3.5172548E0,2.8124046E0,4.740059E0,1.4832535E0,0E0,0E0,0E0,0E0,0E0,0E0,0E0,0E0,0E0,0E0,0E0,0E0,0E0,0E0,0E0,0E0,0E0,0E0,0E0,0E0,0E0,0E0,0E0,0E0,0E0,0E0,0E0,0E0,0E0,0E0,0E0,0E0],"parents":[2147483647,0,0,1,1,2,2,3,3,4,4,5,5,6,6,7,7,8,8,9,9,10,10,11,11,12,12,13,13,14,14,15,15,16,16,17,17,18,18,19,19,20,20,21,21,22,22,23,23,24,24,25,25,26,26,27,27,28,28,29,29,30,30],"right_children":[2,4,6,8,10,12,14,16,18,20,22,24,26,28,30,32,34,36,38,40,42,44,46,48,50,52,54,56,58,60,62,-1,-1,-1,-1,-1,-1,-1,-1,-1,-1,-1,-1,-1,-1,-1,-1,-1,-1,-1,-1,-1,-1,-1,-1,-1,-1,-1,-1,-1,-1,-1,-1],"split_conditions":[5.9528375E-1,5.9742796E-1,1.1445085E-1,-2.091694E0,-1.763123E-1,1.3593957E0,1.21279E0,2.4203124E0,1.1238511E-1,1.5448709E0,1.0825734E0,-1.301116E0,3.0489826E-1,1.0005E0,9.631403E-1,2.7402325E0,2.5170588E0,-2.3722034E0,-4.8643E-1,1.6898769E0,-1.3963982E0,-1.5918847E0,1.5706717E0,-1.3764534E0,8.827186E-1,1.4385878E0,-1.1523736E0,6.027284E-1,-1.1867725E0,1.6711241E0,1.3066545E0,-5.1520582E-2,2.2549272E-1,-9.5064536E-2,-1.6263582E-1,1.35513665E-2,9.2087135E-2,1.02770075E-1,3.6989775E-2,6.063816E-2,-9.441082E-2,5.052223E-2,-5.2871943E-2,1.0487783E-1,-3.5642472E-3,-3.0421285E-2,-7.343437E-2,5.9852097E-2,2.734108E-1,5.150495E-2,1.1271988E-2,-4.412397E-2,-1.2198112E-1,6.769592E-2,-1.2552036E-2,-1.1763053E-2,-3.775374E-2,9.241176E-3,-7.7605486E-2,-8.033846E-2,5.3966217E-2,-8.860577E-2,-1.3514063E-1],"split_indices":[4,5,5,5,4,4,4,1,4,5,5,5,6,5,5,9,1,4,5,0,4,0,5,5,4,0,5,5,6,0,4,0,0,0,0,0,0,0,0,0,0,0,0,0,0,0,0,0,0,0,0,0,0,0,0,0,0,0,0,0,0,0,0],"split_type":[0,0,0,0,0,0,0,0,0,0,0,0,0,0,0,0,0,0,0,0,0,0,0,0,0,0,0,0,0,0,0,0,0,0,0,0,0,0,0,0,0,0,0,0,0,0,0,0,0,0,0,0,0,0,0,0,0,0,0,0,0,0,0],"sum_hessian":[2.739728E4,2.0040514E4,7.3567666E3,1.5580998E4,4.4595156E3,3.457787E3,3.8989795E3,4.068929E2,1.51741045E4,2.1804202E3,2.2790955E3,2.8753762E3,5.824108E2,2.8105447E3,1.0884349E3,3.5660648E2,5.028644E1,1.0842717E4,4.331388E3,1.9175436E3,2.6287662E2,1.42938E3,8.4971533E2,3.2314468E2,2.5522314E3,3.4988416E2,2.3252667E2,1.9937144E3,8.1683026E2,7.4741327E2,3.4102173E2,3.5422577E2,2.3807094E0,5.055676E0,4.5230766E1,3.9854834E2,1.0444168E4,1.445856E3,2.8855322E3,1.8808263E3,3.6717308E1,6.3482193E1,1.9939442E2,6.2297634E1,1.3670824E3,5.8063196E2,2.6908334E2,2.5837112E2,6.4773544E1,1.2031553E3,1.3490763E3,3.0783362E2,4.2050526E1,4.160827E1,1.9091841E2,1.240025E3,7.5368933E2,3.4852207E1,7.81978E2,7.2362274E2,2.3790539E1,9.3735275E1,2.4728645E2],"tree_param":{"num_deleted":"0","num_feature":"11","num_nodes":"63","size_leaf_vector":"1"}},{"base_weights":[2.5184605E-1,-5.578326E-2,2.963639E-1,-2.0723908E-1,1.00214496E-1,1.5582289E-1,3.3641878E-1,-3.4755716E-1,-1.318681E-1,2.2253329E-2,2.4068457E-1,5.365281E-2,3.1001782E-1,3.4369662E-1,1.0170326E-1,-4.9221683E-1,-2.9547533E-1,-2.3692052E-1,-3.2701872E-2,-2.518064E-1,6.43135E-2,1.09436594E-1,3.0188447E-1,-1.0319552E-1,1.1299938E-1,-1.2539315E-1,3.2430604E-1,2.4719827E-1,3.587948E-1,1.6032888E-1,-1.8477465E-1,-1.0092275E-1,-1.6135982E-1,-1.2383354E-1,-6.941629E-2,-8.94007E-2,-2.497189E-2,5.5531833E-2,-2.1400495E-2,-8.770372E-2,4.436723E-2,-1.0175136E-2,3.3755828E-2,-1.0528311E-1,4.1698024E-2,1.9979493E-1,7.693939E-2,-5.263337E-2,2.2949236E-2,1.4551762E-2,5.882941E-2,5.6232046E-2,-7.004446E-2,2.0410487E-2,1.0090539E-1,4.773081E-2,1.03392296E-1,1.1240355E-1,8.9587234E-2,5.7397366E-2,-6.8236455E-2,1.701418E-1,-6.750082E-2],"categories":[],"categories_nodes":[],"categories_segments":[],"categories_sizes":[],"default_left":[0,0,0,0,0,0,0,0,0,0,0,0,0,0,0,0,0,0,0,0,0,0,0,0,0,0,0,0,0,0,0,0,0,0,0,0,0,0,0,0,0,0,0,0,0,0,0,0,0,0,0,0,0,0,0,0,0,0,0,0,0,0,0],"id":13,"left_children":[1,3,5,7,9,11,13,15,17,19,21,23,25,27,29,31,33,35,37,39,41,43,45,47,49,51,53,55,57,59,61,-1,-1,-1,-1,-1,-1,-1,-1,-1,-1,-1,-1,-1,-1,-1,-1,-1,-1,-1,-1,-1,-1,-1,-1,-1,-1,-1,-1,-1,-1,-1,-1],"loss_changes":[4.0554932E2,8.84867E1,1.4557007E2,2.0049866E1,2.0201513E1,9.0400894E1,3.435205E1,4.852539E0,1.2886803E1,1.3706883E1,5.2560005E0,3.2155506E1,1.4269257E1,2.8357178E1,1.0221252E1,1.0574074E0,3.5901756E0,5.615734E0,5.3806925E0,2.6070967E0,4.883431E0,2.9194696E0,7.246174E0,1.2326737E1,1.3419672E1,2.5253036E0,6.813568E0,2.2648087E1,1.6021484E1,6.10472E0,3.2598345E0,0E0,0E0,0E0,0E0,0E0,0E0,0E0,0E0,0E0,0E0,0E0,0E0,0E0,0E0,0E0,0E0,0E0,0E0,0E0,0E0,0E0,0E0,0E0,0E0,0E0,0E0,0E0,0E0,0E0,0E0,0E0,0E0],"parents":[2147483647,0,0,1,1,2,2,3,3,4,4,5,5,6,6,7,7,8,8,9,9,10,10,11,11,12,12,13,13,14,14,15,15,16,16,17,17,18,18,19,19,20,20,21,21,22,22,23,23,24,24,25,25,26,26,27,27,28,28,29,29,30,30],"right_children":[2,4,6,8,10,12,14,16,18,20,22,24,26,28,30,32,34,36,38,40,42,44,46,48,50,52,54,56,58,60,62,-1,-1,-1,-1,-1,-1,-1,-1,-1,-1,-1,-1,-1,-1,-1,-1,-1,-1,-1,-1,-1,-1,-1,-1,-1,-1,-1,-1,-1,-1,-1,-1],"split_conditions":[-9.984634E-1,-1.19994186E-1,-5.09044E-1,-1.0519624E0,7.408595E-1,4.89089E-1,1.7559692E0,-2.0130262E0,-1.6002247E0,-2.1764936E0,-1.7292162E0,-1.270557E0,-3.0213864E0,-4.9682444E-1,2.2867458E0,-7.6953106E-2,-1.8484353E0,6.4012367E-1,-4.8006403E-1,1.6171484E0,-1.6002247E0,-1.1204883E0,-8.450396E-1,6.4012367E-1,-5.6684513E-2,-8.761812E-1,-2.0294893E0,3.2645524E-1,9.9925303E-1,1.4003882E0,-1.6960381E0,-1.0092275E-1,-1.6135982E-1,-1.2383354E-1,-6.941629E-2,-8.94007E-2,-2.497189E-2,5.5531833E-2,-2.1400495E-2,-8.770372E-2,4.436723E-2,-1.0175136E-2,3.3755828E-2,-1.0528311E-1,4.1698024E-2,1.9979493E-1,7.693939E-2,-5.263337E-2,2.2949236E-2,1.4551762E-2,5.882941E-2,5.6232046E-2,-7.004446E-2,2.0410487E-2,1.0090539E-1,4.773081E-2,1.03392296E-1,1.1240355E-1,8.9587234E-2,5.7397366E-2,-6.8236455E-2,1.701418E-1,-6.750082E-2],"split_indices":[4,5,5,5,5,4,5,5,4,4,4,5,5,4,5,1,4,2,6,9,4,10,10,2,4,7,8,5,4,4,8,0,0,0,0,0,0,0,0,0,0,0,0,0,0,0,0,0,0,0,0,0,0,0,0,0,0,0,0,0,0,0,0],"split_type":[0,0,0,0,0,0,0,0,0,0,0,0,0,0,0,0,0,0,0,0,0,0,0,0,0,0,0,0,0,0,0,0,0,0,0,0,0,0,0,0,0,0,0,0,0,0,0,0,0,0,0,0,0,0,0,0,0,0,0,0,0,0,0],"sum_hessian":[2.9610754E4,3.7433096E3,2.5867443E4,1.8991377E3,1.844172E3,5.738299E3,2.0129145E4,6.623779E2,1.2367598E3,1.1867062E3,6.574658E2,3.4522048E3,2.2860942E3,1.9523318E4,6.058271E2,1.7310895E2,4.8926898E2,5.998818E2,6.36878E2,1.5722932E2,1.0294768E3,2.0996582E2,4.475E2,9.474444E2,2.5047603E3,7.238872E1,2.2137056E3,2.6437107E3,1.6879607E4,5.032757E2,1.0255136E2,4.1122196E1,1.3198676E2,1.7094273E2,3.1832626E2,4.2859418E2,1.7128758E2,9.5375145E1,5.4150287E2,1.4299466E2,1.423466E1,3.389944E2,6.904824E2,1.2010797E1,1.9795503E2,4.811703E1,3.9938297E2,6.7576404E2,2.716804E2,1.4111439E3,1.0936163E3,1.8400162E1,5.3988556E1,9.967576E1,2.1140298E3,1.3898308E3,1.2538798E3,1.33502295E4,3.5293782E3,4.664952E2,3.678049E1,4.542786E0,9.8008575E1],"tree_param":{"num_deleted":"0","num_feature":"11","num_nodes":"63","size_leaf_vector":"1"}},{"base_weights":[2.3269597E-2,-2.243281E-1,2.2715595E-1,-3.528306E-1,1.6404225E-2,9.510306E-2,4.5640153E-1,-4.4518766E-1,-2.6205492E-1,-7.1376435E-2,3.096287E-1,-3.3298926E-4,2.737602E-1,3.553727E-1,5.703686E-1,-4.7443533E-1,-3.4798104E-1,-3.6968398E-1,-2.0719817E-1,-3.3629748E-1,-1.06821945E-2,2.4213707E-1,6.894715E-1,-2.0911646E-1,6.55608E-2,6.672669E-2,3.2650772E-1,3.2480612E-1,5.8168024E-1,5.261651E-1,7.03909E-1,-1.5361446E-1,-1.2860517E-1,-1.1666831E-1,-6.2277336E-2,1.0130166E-2,-1.169792E-1,-7.58121E-2,-4.1556448E-2,-1.0235748E-2,-1.0770004E-1,-2.6162956E-2,1.750809E-2,-2.4072519E-2,9.456697E-2,2.6503202E-1,1.4388075E-1,1.4287423E-1,-7.2531305E-2,-2.9872812E-3,4.185015E-2,4.2831425E-2,-4.754494E-2,8.635917E-2,1.5859203E-1,1.052437E-1,5.944835E-2,1.5965597E-1,2.7437422E-1,1.5153933E-1,2.3840801E-1,2.1912874E-1,1.2027455E-1],"categories":[],"categories_nodes":[],"categories_segments":[],"categories_sizes":[],"default_left":[0,0,0,0,0,0,0,0,0,0,0,0,0,0,0,0,0,0,0,0,0,0,0,0,0,0,0,0,0,0,0,0,0,0,0,0,0,0,0,0,0,0,0,0,0,0,0,0,0,0,0,0,0,0,0,0,0,0,0,0,0,0,0],"id":14,"left_children":[1,3,5,7,9,11,13,15,17,19,21,23,25,27,29,31,33,35,37,39,41,43,45,47,49,51,53,55,57,59,61,-1,-1,-1,-1,-1,-1,-1,-1,-1,-1,-1,-1,-1,-1,-1,-1,-1,-1,-1,-1,-1,-1,-1,-1,-1,-1,-1,-1,-1,-1,-1,-1],"loss_changes":[1.2812427E3,3.545661E2,4.2131122E2,6.2532837E1,1.0271871E2,1.5060147E2,5.836853E1,1.0361816E1,2.2188416E1,4.9382576E1,2.3403488E1,7.923357E1,3.3563812E1,1.8482635E1,1.3730286E1,4.673767E0,4.859764E0,1.0402466E1,7.779045E0,3.9151077E0,1.321401E1,1.8456059E1,5.2011795E0,3.1036259E1,2.4445423E1,1.0738671E1,1.8990967E1,7.770035E0,4.7845078E0,9.757782E0,4.4569397E0,0E0,0E0,0E0,0E0,0E0,0E0,0E0,0E0,0E0,0E0,0E0,0E0,0E0,0E0,0E0,0E0,0E0,0E0,0E0,0E0,0E0,0E0,0E0,0E0,0E0,0E0,0E0,0E0,0E0,0E0,0E0,0E0],"parents":[2147483647,0,0,1,1,2,2,3,3,4,4,5,5,6,6,7,7,8,8,9,9,10,10,11,11,12,12,13,13,14,14,15,15,16,16,17,17,18,18,19,19,20,20,21,21,22,22,23,23,24,24,25,25,26,26,27,27,28,28,29,29,30,30],"right_children":[2,4,6,8,10,12,14,16,18,20,22,24,26,28,30,32,34,36,38,40,42,44,46,48,50,52,54,56,58,60,62,-1,-1,-1,-1,-1,-1,-1,-1,-1,-1,-1,-1,-1,-1,-1,-1,-1,-1,-1,-1,-1,-1,-1,-1,-1,-1,-1,-1,-1,-1,-1,-1],"split_conditions":[1.9718738E-1,3.991642E-1,6.027284E-1,-6.172838E-1,1.3065392E0,9.694328E-1,8.4915185E-1,6.560698E-3,-6.196912E-1,-1.1576372E0,2.0516484E0,-6.3109815E-1,-6.811619E-1,1.7039E0,1.4314219E0,-1.1117065E0,-7.859797E-1,-1.6481434E0,2.5750779E-2,4.2211682E-1,-2.946116E-1,-1.1576372E0,3.470869E-1,-1.6743976E0,9.478944E-2,-4.6719868E-2,1.6058818E0,5.6032753E-1,2.2867458E0,1.6621778E0,1.5211006E0,-1.5361446E-1,-1.2860517E-1,-1.1666831E-1,-6.2277336E-2,1.0130166E-2,-1.169792E-1,-7.58121E-2,-4.1556448E-2,-1.0235748E-2,-1.0770004E-1,-2.6162956E-2,1.750809E-2,-2.4072519E-2,9.456697E-2,2.6503202E-1,1.4388075E-1,1.4287423E-1,-7.2531305E-2,-2.9872812E-3,4.185015E-2,4.2831425E-2,-4.754494E-2,8.635917E-2,1.5859203E-1,1.052437E-1,5.944835E-2,1.5965597E-1,2.7437422E-1,1.5153933E-1,2.3840801E-1,2.1912874E-1,1.2027455E-1],"split_indices":[4,5,5,4,5,4,4,5,5,4,5,5,5,5,5,4,4,0,5,5,4,4,8,0,5,1,4,6,5,4,0,0,0,0,0,0,0,0,0,0,0,0,0,0,0,0,0,0,0,0,0,0,0,0,0,0,0,0,0,0,0,0,0],"split_type":[0,0,0,0,0,0,0,0,0,0,0,0,0,0,0,0,0,0,0,0,0,0,0,0,0,0,0,0,0,0,0,0,0,0,0,0,0,0,0,0,0,0,0,0,0,0,0,0,0,0,0,0,0,0,0,0,0,0,0,0,0,0,0],"sum_hessian":[2.5378283E4,1.1460572E4,1.3917712E4,7.471717E3,3.9888547E3,8.831751E3,5.085961E3,3.7016628E3,3.7700542E3,3.0704355E3,9.184193E2,5.757289E3,3.0744622E3,2.698198E3,2.3877627E3,2.8425203E3,8.591425E2,1.2708683E3,2.4991858E3,5.714786E2,2.498957E3,7.812431E2,1.3717618E2,1.3806254E3,4.376664E3,6.247172E2,2.4497449E3,2.379273E3,3.1892496E2,1.7976567E3,5.90106E2,1.5544198E3,1.2881006E3,6.638958E2,1.9524672E2,6.0697292E1,1.210171E3,1.5015195E3,9.976664E2,4.0109745E1,5.313688E2,1.185106E3,1.3138511E3,1.4436398E2,6.368791E2,6.962069E1,6.755549E1,6.2171246E1,1.3184541E3,2.165645E3,2.211019E3,4.672955E2,1.574217E2,2.0586038E3,3.9114117E2,1.9724631E3,4.068099E2,2.7990845E2,3.9016487E1,1.6697454E3,1.2791142E2,5.413156E2,4.8790424E1],"tree_param":{"num_deleted":"0","num_feature":"11","num_nodes":"63","size_leaf_vector":"1"}},{"base_weights":[-3.286433E-1,-2.1929506E-2,-4.1731727E-1,2.6411328E-1,-1.4766753E-1,2.8005174E-1,-4.3691465E-1,5.13233E-1,1.3833684E-1,4.3583903E-2,-2.5110692E-1,1.3241434E-1,4.3666336E-1,-2.8531834E-1,-4.6421105E-1,8.079954E-1,4.4637156E-1,2.8325945E-1,-2.5783218E-3,2.720781E-1,-2.6808403E-2,-1.790491E-1,-3.3183178E-1,4.5245403E-1,3.102064E-2,5.353977E-1,2.3368974E-1,-1.3972475E-1,-3.8206375E-1,-3.9655206E-1,-4.8958942E-1,2.5499687E-1,8.5226044E-2,1.0659311E-1,1.8029487E-1,1.4420933E-1,3.0188646E-2,-1.7346371E-2,9.385487E-2,9.880317E-2,-2.2615027E-2,1.708534E-1,-1.3025935E-2,-4.8341886E-3,-6.22373E-2,-7.212376E-2,-1.0769725E-1,1.886971E-1,-4.7795147E-2,-5.6750584E-2,3.8027275E-2,-9.456006E-2,1.6817617E-1,9.020899E-2,-1.5447894E-1,-1.0878416E-2,-6.310083E-2,-8.5401796E-2,-1.21895745E-1,-1.1200599E-1,-1.4706077E-1,-1.308243E-1,-1.525474E-1],"categories":[],"categories_nodes":[],"categories_segments":[],"categories_sizes":[],"default_left":[0,0,0,0,0,0,0,0,0,0,0,0,0,0,0,0,0,0,0,0,0,0,0,0,0,0,0,0,0,0,0,0,0,0,0,0,0,0,0,0,0,0,0,0,0,0,0,0,0,0,0,0,0,0,0,0,0,0,0,0,0,0,0],"id":15,"left_children":[1,3,5,7,9,11,13,15,17,19,21,23,25,27,29,31,33,35,37,39,41,43,45,47,49,51,53,55,57,59,61,-1,-1,-1,-1,-1,-1,-1,-1,-1,-1,-1,-1,-1,-1,-1,-1,-1,-1,-1,-1,-1,-1,-1,-1,-1,-1,-1,-1,-1,-1,-1,-1],"loss_changes":[5.0657104E2,1.5031824E2,1.9758618E2,3.9917168E1,5.7442802E1,9.087856E0,5.8023926E1,8.070457E0,1.7347368E1,1.641111E1,1.0900894E1,6.6395535E0,3.7127113E0,3.0188828E1,2.025293E1,1.4715805E0,4.72731E0,1.5051521E1,7.539735E0,4.8059254E0,7.7569637E0,4.614912E0,2.1172256E0,5.420039E0,3.3290122E0,2.920517E0,3.3875413E0,6.265833E0,2.9300842E0,6.8854675E0,8.532715E0,0E0,0E0,0E0,0E0,0E0,0E0,0E0,0E0,0E0,0E0,0E0,0E0,0E0,0E0,0E0,0E0,0E0,0E0,0E0,0E0,0E0,0E0,0E0,0E0,0E0,0E0,0E0,0E0,0E0,0E0,0E0,0E0],"parents":[2147483647,0,0,1,1,2,2,3,3,4,4,5,5,6,6,7,7,8,8,9,9,10,10,11,11,12,12,13,13,14,14,15,15,16,16,17,17,18,18,19,19,20,20,21,21,22,22,23,23,24,24,25,25,26,26,27,27,28,28,29,29,30,30],"right_children":[2,4,6,8,10,12,14,16,18,20,22,24,26,28,30,32,34,36,38,40,42,44,46,48,50,52,54,56,58,60,62,-1,-1,-1,-1,-1,-1,-1,-1,-1,-1,-1,-1,-1,-1,-1,-1,-1,-1,-1,-1,-1,-1,-1,-1,-1,-1,-1,-1,-1,-1,-1,-1],"split_conditions":[-8.788327E-1,-8.943748E-1,-2.2458696E0,-1.872835E0,-1.7879016E0,1.135163E-1,-9.009195E-1,-2.6388388E0,-3.6169288E-1,-2.6388388E0,1.8536255E-1,-9.506937E-1,-3.4186556E0,-5.6684513E-2,-1.3116974E-1,7.080026E-1,1.4226155E0,-1.617834E0,1.4385878E0,6.645973E-1,-1.6481434E0,-1.0442994E0,-4.0649542E-1,9.2475295E-1,2.1649076E-1,-2.8825405E0,7.108371E-1,-5.602046E-1,-1.4709972E0,7.7638084E-1,-1.6928719E-1,2.5499687E-1,8.5226044E-2,1.0659311E-1,1.8029487E-1,1.4420933E-1,3.0188646E-2,-1.7346371E-2,9.385487E-2,9.880317E-2,-2.2615027E-2,1.708534E-1,-1.3025935E-2,-4.8341886E-3,-6.22373E-2,-7.212376E-2,-1.0769725E-1,1.886971E-1,-4.7795147E-2,-5.6750584E-2,3.8027275E-2,-9.456006E-2,1.6817617E-1,9.020899E-2,-1.5447894E-1,-1.0878416E-2,-6.310083E-2,-8.5401796E-2,-1.21895745E-1,-1.1200599E-1,-1.4706077E-1,-1.308243E-1,-1.525474E-1],"split_indices":[4,5,5,5,4,1,5,4,0,4,5,1,5,4,4,9,1,4,0,8,0,0,1,4,2,10,4,4,5,5,5,0,0,0,0,0,0,0,0,0,0,0,0,0,0,0,0,0,0,0,0,0,0,0,0,0,0,0,0,0,0,0,0],"split_type":[0,0,0,0,0,0,0,0,0,0,0,0,0,0,0,0,0,0,0,0,0,0,0,0,0,0,0,0,0,0,0,0,0,0,0,0,0,0,0,0,0,0,0,0,0,0,0,0,0,0,0,0,0,0,0,0,0,0,0,0,0,0,0],"sum_hessian":[1.8624959E4,4.1773164E3,1.4447642E4,1.2752152E3,2.9021013E3,3.9454492E2,1.4053097E4,4.2679712E2,8.484181E2,1.0188694E3,1.883232E3,2.0404124E2,1.905037E2,2.1460442E3,1.1907053E4,7.6862E1,3.4993512E2,4.177636E2,4.3065448E2,2.3928441E2,7.7958496E2,9.967322E2,8.864999E2,4.825777E1,1.5578346E2,1.27059296E2,6.3444393E1,8.577092E2,1.288335E3,3.2524946E3,8.654558E3,7.058206E1,6.2799373E0,2.2230344E2,1.27631676E2,1.9995943E2,2.1780418E2,3.6716687E2,6.348761E1,2.0547227E2,3.381214E1,2.0225895E1,7.593591E2,1.482162E2,8.485159E2,2.0529944E2,6.8120044E2,3.7428917E1,1.0828852E1,4.6912224E1,1.0887125E2,3.3233573E0,1.2373594E2,5.8781364E1,4.6630282E0,3.4853354E2,5.0917566E2,2.5942365E2,1.0289114E3,2.6107546E3,6.417398E2,2.2654614E3,6.3890967E3],"tree_param":{"num_deleted":"0","num_feature":"11","num_nodes":"63","size_leaf_vector":"1"}},{"base_weights":[-1.7162478E-1,-1.3712032E-2,-3.184201E-1,1.1968258E-1,-9.1117516E-2,-1.5742144E-1,-3.9113274E-1,2.0120138E-1,8.1686385E-2,1.4784287E-2,-1.7336968E-1,5.584092E-2,-1.9639654E-1,-3.3709934E-1,-4.475317E-1,-1.4287469E-1,2.4584833E-1,1.6190045E-1,9.4576655E-3,1.0746664E-1,-4.950327E-2,-8.457092E-2,-2.3835018E-1,-2.8566204E-2,1.7815775E-1,-1.4034544E-1,-3.56245E-1,-2.9340768E-1,-4.0196615E-1,-3.9677817E-1,-4.6953848E-1,-1.3957813E-1,-2.3827411E-2,-4.675474E-2,8.1636816E-2,6.1027292E-2,1.7302955E-2,6.474717E-2,-2.4817388E-3,4.905205E-2,-3.5016013E-3,-1.8057117E-3,-5.7519514E-2,-2.912549E-2,3.7306312E-2,-5.1990256E-2,-8.48226E-2,1.8007422E-2,-4.647306E-2,7.110989E-2,-5.725537E-2,-6.836693E-2,-2.9749306E-2,-1.125698E-1,-1.8823277E-2,-1.3572255E-1,-8.586249E-2,-1.08845726E-1,-1.3381626E-1,-1.1386832E-1,-1.572444E-1,-1.3529576E-1,-1.5180433E-1],"categories":[],"categories_nodes":[],"categories_segments":[],"categories_sizes":[],"default_left":[0,0,0,0,0,0,0,0,0,0,0,0,0,0,0,0,0,0,0,0,0,0,0,0,0,0,0,0,0,0,0,0,0,0,0,0,0,0,0,0,0,0,0,0,0,0,0,0,0,0,0,0,0,0,0,0,0,0,0,0,0,0,0],"id":16,"left_children":[1,3,5,7,9,11,13,15,17,19,21,23,25,27,29,31,33,35,37,39,41,43,45,47,49,51,53,55,57,59,61,-1,-1,-1,-1,-1,-1,-1,-1,-1,-1,-1,-1,-1,-1,-1,-1,-1,-1,-1,-1,-1,-1,-1,-1,-1,-1,-1,-1,-1,-1,-1,-1],"loss_changes":[4.8901288E2,1.0495975E2,1.27923096E2,1.15451355E1,5.603302E1,2.8296959E1,2.2798218E1,1.8254463E1,1.4758993E1,1.6765305E1,2.0871017E1,5.442044E0,2.5731056E1,1.0793518E1,3.9257812E0,2.7623951E0,1.1126099E1,5.212076E0,4.910631E0,7.6955366E0,1.0274929E1,4.0160036E0,5.986496E0,3.5065687E0,4.719651E0,7.663864E0,4.1359863E0,2.5081482E0,2.507843E0,2.2570953E0,1.5059204E0,0E0,0E0,0E0,0E0,0E0,0E0,0E0,0E0,0E0,0E0,0E0,0E0,0E0,0E0,0E0,0E0,0E0,0E0,0E0,0E0,0E0,0E0,0E0,0E0,0E0,0E0,0E0,0E0,0E0,0E0,0E0,0E0],"parents":[2147483647,0,0,1,1,2,2,3,3,4,4,5,5,6,6,7,7,8,8,9,9,10,10,11,11,12,12,13,13,14,14,15,15,16,16,17,17,18,18,19,19,20,20,21,21,22,22,23,23,24,24,25,25,26,26,27,27,28,28,29,29,30,30],"right_children":[2,4,6,8,10,12,14,16,18,20,22,24,26,28,30,32,34,36,38,40,42,44,46,48,50,52,54,56,58,60,62,-1,-1,-1,-1,-1,-1,-1,-1,-1,-1,-1,-1,-1,-1,-1,-1,-1,-1,-1,-1,-1,-1,-1,-1,-1,-1,-1,-1,-1,-1,-1,-1],"split_conditions":[-8.516416E-2,-4.6375984E-1,-3.6364812E-1,-1.3195008E0,-9.087954E-1,-1.4709972E0,6.349639E-1,-2.091694E0,-1.0971415E0,-1.617834E0,1.8536255E-1,7.2972727E-1,9.0278035E-1,5.706044E-1,1.9332516E-1,-2.9616082E0,-1.6593952E0,-3.528728E-1,-8.660675E-1,6.4012367E-1,6.9956386E-1,1.6186159E0,-5.48287E-1,-3.2707635E-1,1.6523712E0,-5.417209E-1,1.5644822E0,-3.0486286E0,1.0174357E0,1.4633965E0,9.926811E-1,-1.3957813E-1,-2.3827411E-2,-4.675474E-2,8.1636816E-2,6.1027292E-2,1.7302955E-2,6.474717E-2,-2.4817388E-3,4.905205E-2,-3.5016013E-3,-1.8057117E-3,-5.7519514E-2,-2.912549E-2,3.7306312E-2,-5.1990256E-2,-8.48226E-2,1.8007422E-2,-4.647306E-2,7.110989E-2,-5.725537E-2,-6.836693E-2,-2.9749306E-2,-1.125698E-1,-1.8823277E-2,-1.3572255E-1,-8.586249E-2,-1.08845726E-1,-1.3381626E-1,-1.1386832E-1,-1.572444E-1,-1.3529576E-1,-1.5180433E-1],"split_indices":[4,5,5,4,4,5,4,5,5,4,5,0,4,5,5,4,0,4,10,2,5,0,4,7,0,0,9,10,5,4,5,0,0,0,0,0,0,0,0,0,0,0,0,0,0,0,0,0,0,0,0,0,0,0,0,0,0,0,0,0,0,0,0],"split_type":[0,0,0,0,0,0,0,0,0,0,0,0,0,0,0,0,0,0,0,0,0,0,0,0,0,0,0,0,0,0,0,0,0,0,0,0,0,0,0,0,0,0,0,0,0,0,0,0,0,0,0,0,0,0,0,0,0,0,0,0,0,0,0],"sum_hessian":[2.1094738E4,1.016307E4,1.0931668E4,3.7316638E3,6.4314067E3,3.402063E3,7.5296055E3,1.1850046E3,2.5466592E3,2.8118704E3,3.6195361E3,5.256115E2,2.8764517E3,3.8490112E3,3.680594E3,1.3585153E2,1.0491531E3,1.2060411E3,1.340618E3,1.1513359E3,1.6605344E3,1.5304331E3,2.089103E3,3.1145343E2,2.1415808E2,2.1310674E3,7.453841E2,2.3031953E3,1.545816E3,1.1189729E3,2.561621E3,2.1299135E1,1.145524E2,6.410767E1,9.850454E2,8.617568E2,3.4428436E2,1.05183495E2,1.2354346E3,7.8276715E2,3.685688E2,1.2725221E3,3.8801236E2,1.44445E3,8.598317E1,8.493765E2,1.2397266E3,1.8338847E2,1.2806496E2,1.849992E2,2.9158888E1,6.803083E2,1.4507592E3,6.9983093E2,4.5553135E1,9.709001E1,2.2061052E3,8.236771E2,7.2213885E2,9.892338E2,1.2973904E2,1.7068419E3,8.5477924E2],"tree_param":{"num_deleted":"0","num_feature":"11","num_nodes":"63","size_leaf_vector":"1"}},{"base_weights":[1.14443414E-1,1.620714E-1,-5.1073812E-2,2.0966199E-1,6.7515284E-2,6.392633E-2,-1.5946288E-1,-1.6954112E-1,2.2019084E-1,1.6376527E-1,-3.1139432E-5,9.80709E-2,-8.488554E-2,-1.1896921E-1,-2.849461E-1,-1.2858678E-1,-5.0016665E-1,1.2627505E-1,2.3849533E-1,1.9072376E-1,5.975639E-3,3.650515E-2,-1.16131E-1,-5.986883E-2,1.16839565E-1,-1.5195541E-1,1.2535E-2,-7.9545096E-2,-2.1837789E-1,-2.2960658E-1,-4.0066567E-1,-1.07452385E-1,-2.644148E-2,-8.252082E-2,-1.5565991E-1,4.871078E-2,-2.313729E-2,2.1715028E-2,7.3798604E-2,6.1426573E-2,5.466215E-4,-2.8264396E-2,5.865741E-2,-2.6389776E-2,1.9431066E-2,-2.9785912E-2,-1.1588266E-1,2.4035172E-1,-2.9556006E-2,4.9513303E-2,1.4520302E-2,-3.664491E-2,-1.1207151E-1,-3.161012E-2,2.5855593E-2,-2.8939422E-2,1.1378464E-2,-8.750829E-2,-5.2130915E-2,3.910598E-2,-7.394915E-2,-1.0105888E-1,-1.4544699E-1],"categories":[],"categories_nodes":[],"categories_segments":[],"categories_sizes":[],"default_left":[0,0,0,0,0,0,0,0,0,0,0,0,0,0,0,0,0,0,0,0,0,0,0,0,0,0,0,0,0,0,0,0,0,0,0,0,0,0,0,0,0,0,0,0,0,0,0,0,0,0,0,0,0,0,0,0,0,0,0,0,0,0,0],"id":17,"left_children":[1,3,5,7,9,11,13,15,17,19,21,23,25,27,29,31,33,35,37,39,41,43,45,47,49,51,53,55,57,59,61,-1,-1,-1,-1,-1,-1,-1,-1,-1,-1,-1,-1,-1,-1,-1,-1,-1,-1,-1,-1,-1,-1,-1,-1,-1,-1,-1,-1,-1,-1,-1,-1],"loss_changes":[2.2004819E2,9.7525024E1,7.776362E1,5.7602478E1,4.7189346E1,1.5390601E1,1.6284721E1,5.2175503E0,2.4086792E1,1.27313385E1,1.8100761E1,7.307579E0,3.6969957E0,9.504925E0,4.920971E0,3.2041283E0,3.6787033E-2,1.682777E1,1.460791E1,6.7755814E0,8.332748E0,1.1424839E1,4.609638E0,8.806483E0,7.255163E0,2.1672444E0,2.0194068E0,3.4647274E0,2.203968E0,3.2660484E0,1.18927E0,0E0,0E0,0E0,0E0,0E0,0E0,0E0,0E0,0E0,0E0,0E0,0E0,0E0,0E0,0E0,0E0,0E0,0E0,0E0,0E0,0E0,0E0,0E0,0E0,0E0,0E0,0E0,0E0,0E0,0E0,0E0,0E0],"parents":[2147483647,0,0,1,1,2,2,3,3,4,4,5,5,6,6,7,7,8,8,9,9,10,10,11,11,12,12,13,13,14,14,15,15,16,16,17,17,18,18,19,19,20,20,21,21,22,22,23,23,24,24,25,25,26,26,27,27,28,28,29,29,30,30],"right_children":[2,4,6,8,10,12,14,16,18,20,22,24,26,28,30,32,34,36,38,40,42,44,46,48,50,52,54,56,58,60,62,-1,-1,-1,-1,-1,-1,-1,-1,-1,-1,-1,-1,-1,-1,-1,-1,-1,-1,-1,-1,-1,-1,-1,-1,-1,-1,-1,-1,-1,-1,-1,-1],"split_conditions":[6.869759E-1,3.2027286E-1,1.1445085E-1,-2.091694E0,-3.528728E-1,1.3593957E0,1.2730014E0,2.4203124E0,-1.055551E0,1.3065392E0,1.0825734E0,-1.1493157E0,3.0489826E-1,1.0005E0,9.299809E-1,-8.198944E-1,2.5170588E0,-1.2243273E0,-1.4709972E0,1.5886111E0,2.2714892E-1,4.2211682E-1,2.0516484E0,-2.0130262E0,-3.7626737E-1,1.4385878E0,-2.0041774E-1,8.748717E-1,-6.204832E-1,-3.2431781E0,1.8234154E-2,-1.07452385E-1,-2.644148E-2,-8.252082E-2,-1.5565991E-1,4.871078E-2,-2.313729E-2,2.1715028E-2,7.3798604E-2,6.1426573E-2,5.466215E-4,-2.8264396E-2,5.865741E-2,-2.6389776E-2,1.9431066E-2,-2.9785912E-2,-1.1588266E-1,2.4035172E-1,-2.9556006E-2,4.9513303E-2,1.4520302E-2,-3.664491E-2,-1.1207151E-1,-3.161012E-2,2.5855593E-2,-2.8939422E-2,1.1378464E-2,-8.750829E-2,-5.2130915E-2,3.910598E-2,-7.394915E-2,-1.0105888E-1,-1.4544699E-1],"split_indices":[4,5,5,5,4,4,4,1,0,5,5,0,6,5,5,8,1,0,5,0,0,5,5,5,5,0,0,5,0,2,6,0,0,0,0,0,0,0,0,0,0,0,0,0,0,0,0,0,0,0,0,0,0,0,0,0,0,0,0,0,0,0,0],"split_type":[0,0,0,0,0,0,0,0,0,0,0,0,0,0,0,0,0,0,0,0,0,0,0,0,0,0,0,0,0,0,0,0,0,0,0,0,0,0,0,0,0,0,0,0,0,0,0,0,0,0,0,0,0,0,0,0,0,0,0,0,0,0,0],"sum_hessian":[2.7911322E4,2.1674463E4,6.23686E3,1.4417063E4,7.2573994E3,3.026341E3,3.2105188E3,3.8907758E2,1.4027986E4,2.9922217E3,4.2651777E3,2.461822E3,5.645189E2,2.4287156E3,7.818032E2,3.4743054E2,4.164703E1,2.289425E3,1.1738562E4,2.5554175E3,4.368042E2,3.24475E3,1.0204279E3,2.6124405E2,2.2005781E3,3.3400854E2,2.3051036E2,1.7403263E3,6.883892E2,5.308999E2,2.5090332E2,5.0864746E1,2.965658E2,4.399376E0,3.7247654E1,1.9445557E3,3.4486923E2,5.075637E2,1.1230997E4,2.3786494E3,1.767681E2,2.860887E2,1.5071548E2,6.000764E2,2.6446736E3,9.618219E2,5.8606045E1,1.0375627E1,2.5086844E2,1.2903248E3,9.1025323E2,2.957796E2,3.822895E1,8.846376E1,1.420466E2,1.5213812E3,2.1894514E2,2.5830667E2,4.3008255E2,2.3494068E1,5.0740582E2,1.455555E2,1.05347824E2],"tree_param":{"num_deleted":"0","num_feature":"11","num_nodes":"63","size_leaf_vector":"1"}},{"base_weights":[1.970172E-1,-3.8232815E-2,2.3077688E-1,-2.5772518E-1,3.713064E-2,9.643237E-2,2.5442094E-1,-3.7501022E-1,-1.8387127E-1,-1.3223885E-2,1.8605217E-1,-2.0773722E-2,1.8955545E-1,1.89626E-1,2.6876524E-1,-2.5568345E-1,-4.1906312E-1,-4.1272894E-1,-1.4976472E-1,-2.5643805E-1,2.4030682E-2,5.77302E-1,1.7090167E-1,-3.216804E-1,-5.036684E-4,1.5769199E-1,3.3666137E-1,1.1910219E-1,2.6775753E-1,2.7234778E-1,1.9425526E-2,-1.18857205E-1,-3.0291827E-2,-1.2902834E-1,5.8565373E-3,-3.8097348E-2,-1.380894E-1,1.8420088E-3,-5.3516783E-2,-1.11122064E-1,-4.8936795E-2,1.6879153E-1,3.9015294E-3,9.223873E-2,2.8155407E-1,6.053191E-2,7.4356655E-4,-4.9616903E-2,-1.3127473E-1,-1.2016007E-2,3.2430544E-2,1.7336419E-2,6.1249163E-2,-6.7573885E-4,1.3678181E-1,-9.122159E-3,4.0272176E-2,4.0480897E-2,8.890015E-2,7.007688E-2,8.74987E-2,1.9583334E-1,-1.3607842E-3],"categories":[],"categories_nodes":[],"categories_segments":[],"categories_sizes":[],"default_left":[0,0,0,0,0,0,0,0,0,0,0,0,0,0,0,0,0,0,0,0,0,0,0,0,0,0,0,0,0,0,0,0,0,0,0,0,0,0,0,0,0,0,0,0,0,0,0,0,0,0,0,0,0,0,0,0,0,0,0,0,0,0,0],"id":18,"left_children":[1,3,5,7,9,11,13,15,17,19,21,23,25,27,29,31,33,35,37,39,41,43,45,47,49,51,53,55,57,59,61,-1,-1,-1,-1,-1,-1,-1,-1,-1,-1,-1,-1,-1,-1,-1,-1,-1,-1,-1,-1,-1,-1,-1,-1,-1,-1,-1,-1,-1,-1,-1,-1],"loss_changes":[2.4432349E2,6.3884277E1,8.542859E1,8.481155E0,2.1564333E1,4.3964516E1,2.1210327E1,1.8926926E0,4.681225E0,1.9484411E1,4.208536E0,1.0882117E1,1.046772E1,2.2833252E1,1.6722656E1,2.2456164E0,1.3451462E0,1.005043E0,2.3681421E0,2.9772873E0,1.1068431E1,2.3107567E0,3.6441174E0,1.967309E0,7.188487E0,8.562378E0,1.6119766E1,4.944504E0,7.4290314E0,1.3752075E1,4.044844E0,0E0,0E0,0E0,0E0,0E0,0E0,0E0,0E0,0E0,0E0,0E0,0E0,0E0,0E0,0E0,0E0,0E0,0E0,0E0,0E0,0E0,0E0,0E0,0E0,0E0,0E0,0E0,0E0,0E0,0E0,0E0,0E0],"parents":[2147483647,0,0,1,1,2,2,3,3,4,4,5,5,6,6,7,7,8,8,9,9,10,10,11,11,12,12,13,13,14,14,15,15,16,16,17,17,18,18,19,19,20,20,21,21,22,22,23,23,24,24,25,25,26,26,27,27,28,28,29,29,30,30],"right_children":[2,4,6,8,10,12,14,16,18,20,22,24,26,28,30,32,34,36,38,40,42,44,46,48,50,52,54,56,58,60,62,-1,-1,-1,-1,-1,-1,-1,-1,-1,-1,-1,-1,-1,-1,-1,-1,-1,-1,-1,-1,-1,-1,-1,-1,-1,-1,-1,-1,-1,-1,-1,-1],"split_conditions":[-9.639966E-1,-5.814491E-1,-8.313796E-1,-1.7292162E0,7.408595E-1,1.9718738E-1,-3.2076848E-1,-3.9012325E-1,-2.0130262E0,-2.1764936E0,-1.1137066E0,-3.0213864E0,1.21279E0,2.9935798E-1,1.8835156E0,-1.4415897E-1,1.7720596E0,-1.617834E0,-9.811845E-1,1.1681854E0,-5.6939703E-1,-1.1751275E0,6.1598057E-1,7.7236414E-2,6.4012367E-1,-1.301116E0,-1.011882E0,-1.0363511E0,-6.9090897E-1,-7.3906106E-1,-1.6057351E0,-1.18857205E-1,-3.0291827E-2,-1.2902834E-1,5.8565373E-3,-3.8097348E-2,-1.380894E-1,1.8420088E-3,-5.3516783E-2,-1.11122064E-1,-4.8936795E-2,1.6879153E-1,3.9015294E-3,9.223873E-2,2.8155407E-1,6.053191E-2,7.4356655E-4,-4.9616903E-2,-1.3127473E-1,-1.2016007E-2,3.2430544E-2,1.7336419E-2,6.1249163E-2,-6.7573885E-4,1.3678181E-1,-9.122159E-3,4.0272176E-2,4.0480897E-2,8.890015E-2,7.007688E-2,8.74987E-2,1.9583334E-1,-1.3607842E-3],"split_indices":[4,5,5,4,5,4,4,7,5,4,6,5,4,5,5,0,10,4,6,7,5,6,9,1,2,5,8,8,10,1,9,0,0,0,0,0,0,0,0,0,0,0,0,0,0,0,0,0,0,0,0,0,0,0,0,0,0,0,0,0,0,0,0],"split_type":[0,0,0,0,0,0,0,0,0,0,0,0,0,0,0,0,0,0,0,0,0,0,0,0,0,0,0,0,0,0,0,0,0,0,0,0,0,0,0,0,0,0,0,0,0,0,0,0,0,0,0,0,0,0,0,0,0,0,0,0,0,0,0],"sum_hessian":[3.0761512E4,3.860435E3,2.6901078E4,9.8608655E2,2.8743486E3,4.0266887E3,2.2874389E4,3.7943707E2,6.066494E2,2.1487183E3,7.256304E2,1.7831573E3,2.2435315E3,4.1486504E3,1.8725738E4,1.0414418E2,2.752929E2,7.724283E1,5.294066E2,2.8463202E2,1.8640862E3,2.5668074E1,6.999623E2,1.11599884E2,1.6715575E3,1.8457991E3,3.977323E2,2.1818096E3,1.9668406E3,1.8460406E4,2.6533295E2,5.375941E1,5.0384773E1,2.685575E2,6.7354083E0,1.1547701E1,6.569513E1,8.224447E1,4.4716214E2,1.2679915E2,1.5783286E2,3.6389763E1,1.8276964E3,1.575194E1,9.916135E0,5.913685E2,1.0859376E2,4.855362E1,6.304626E1,1.2258018E3,4.4575574E2,5.8672284E2,1.2590763E3,1.03794365E2,2.9393793E2,2.0051172E2,1.981298E3,3.4925256E2,1.617588E3,6.1441475E3,1.2316258E4,8.715704E0,2.5661725E2],"tree_param":{"num_deleted":"0","num_feature":"11","num_nodes":"63","size_leaf_vector":"1"}},{"base_weights":[1.9431215E-2,-2.1080555E-1,1.7113422E-1,-3.2995808E-1,-1.6115013E-3,-6.0127038E-3,2.777093E-1,-4.1480505E-1,-2.3825112E-1,-7.522494E-2,2.281207E-1,-8.6208604E-2,1.3452181E-1,1.969947E-1,3.8015303E-1,-4.461925E-1,-3.146724E-1,-3.5154158E-1,-1.8146361E-1,-3.074606E-1,-2.1970646E-2,1.7050627E-1,5.340167E-1,-1.8704805E-1,-2.3413008E-2,-2.679842E-2,1.8874025E-1,7.790281E-2,2.731247E-1,3.2274935E-1,4.9384612E-1,-1.458286E-1,-1.1887484E-1,-1.0681497E-1,-5.358652E-2,3.3358037E-3,-1.1166883E-1,-6.7893274E-2,-3.471267E-2,-1.6903762E-2,-9.833131E-2,8.588195E-2,-1.1425302E-2,7.4601375E-2,-1.830316E-2,1.16713054E-1,2.1891499E-1,9.408971E-2,-6.548437E-2,3.174765E-2,-2.1004248E-2,6.008592E-2,-4.0253982E-2,4.587946E-2,1.1611393E-1,2.1962347E-2,2.737314E-1,7.366729E-2,1.2853836E-1,8.104934E-2,1.213861E-1,8.073985E-2,1.5447932E-1],"categories":[],"categories_nodes":[],"categories_segments":[],"categories_sizes":[],"default_left":[0,0,0,0,0,0,0,0,0,0,0,0,0,0,0,0,0,0,0,0,0,0,0,0,0,0,0,0,0,0,0,0,0,0,0,0,0,0,0,0,0,0,0,0,0,0,0,0,0,0,0,0,0,0,0,0,0,0,0,0,0,0,0],"id":19,"left_children":[1,3,5,7,9,11,13,15,17,19,21,23,25,27,29,31,33,35,37,39,41,43,45,47,49,51,53,55,57,59,61,-1,-1,-1,-1,-1,-1,-1,-1,-1,-1,-1,-1,-1,-1,-1,-1,-1,-1,-1,-1,-1,-1,-1,-1,-1,-1,-1,-1,-1,-1,-1,-1],"loss_changes":[8.749189E2,2.4799997E2,2.8508118E2,4.9224792E1,6.1093155E1,6.3948196E1,7.788226E1,1.0203796E1,1.9549744E1,3.3829216E1,1.5359314E1,2.2870989E1,1.8036171E1,4.7807114E1,2.6949097E1,4.7963257E0,4.37722E0,7.6332855E0,5.9684143E0,2.583992E0,1.107033E1,1.3391884E1,3.6448936E0,2.174514E1,1.3421897E1,1.2693439E1,1.0898281E1,7.999056E0,1.3673599E1,1.1785797E1,6.455353E0,0E0,0E0,0E0,0E0,0E0,0E0,0E0,0E0,0E0,0E0,0E0,0E0,0E0,0E0,0E0,0E0,0E0,0E0,0E0,0E0,0E0,0E0,0E0,0E0,0E0,0E0,0E0,0E0,0E0,0E0,0E0,0E0],"parents":[2147483647,0,0,1,1,2,2,3,3,4,4,5,5,6,6,7,7,8,8,9,9,10,10,11,11,12,12,13,13,14,14,15,15,16,16,17,17,18,18,19,19,20,20,21,21,22,22,23,23,24,24,25,25,26,26,27,27,28,28,29,29,30,30],"right_children":[2,4,6,8,10,12,14,16,18,20,22,24,26,28,30,32,34,36,38,40,42,44,46,48,50,52,54,56,58,60,62,-1,-1,-1,-1,-1,-1,-1,-1,-1,-1,-1,-1,-1,-1,-1,-1,-1,-1,-1,-1,-1,-1,-1,-1,-1,-1,-1,-1,-1,-1,-1,-1],"split_conditions":[1.1238511E-1,3.991642E-1,8.883909E-2,-6.172838E-1,1.3065392E0,9.2690235E-1,8.4915185E-1,6.560698E-3,-6.196912E-1,-1.1739628E0,2.0516484E0,-6.3109815E-1,-1.4074354E0,5.785498E-1,1.008672E0,-1.0623788E0,-7.859797E-1,-1.6481434E0,2.5750779E-2,4.2211682E-1,4.2211682E-1,2.6465476E-1,7.4841434E-1,-1.6481434E0,-5.417209E-1,-3.1668586E-1,1.5571619E0,2.1905398E0,1.5706717E0,1.2730014E0,-1.4231083E0,-1.458286E-1,-1.1887484E-1,-1.0681497E-1,-5.358652E-2,3.3358037E-3,-1.1166883E-1,-6.7893274E-2,-3.471267E-2,-1.6903762E-2,-9.833131E-2,8.588195E-2,-1.1425302E-2,7.4601375E-2,-1.830316E-2,1.16713054E-1,2.1891499E-1,9.408971E-2,-6.548437E-2,3.174765E-2,-2.1004248E-2,6.008592E-2,-4.0253982E-2,4.587946E-2,1.1611393E-1,2.1962347E-2,2.737314E-1,7.366729E-2,1.2853836E-1,8.104934E-2,1.213861E-1,8.073985E-2,1.5447932E-1],"split_indices":[4,5,5,4,5,4,4,5,5,4,5,5,2,5,5,4,4,0,5,5,5,0,1,0,0,0,4,1,5,4,0,0,0,0,0,0,0,0,0,0,0,0,0,0,0,0,0,0,0,0,0,0,0,0,0,0,0,0,0,0,0,0,0],"split_type":[0,0,0,0,0,0,0,0,0,0,0,0,0,0,0,0,0,0,0,0,0,0,0,0,0,0,0,0,0,0,0,0,0,0,0,0,0,0,0,0,0,0,0,0,0,0,0,0,0,0,0,0,0,0,0,0,0,0,0,0,0,0,0],"sum_hessian":[2.504746E4,9.948469E3,1.5098992E4,6.337936E3,3.6105325E3,5.6720205E3,9.426972E3,3.2902686E3,3.0476675E3,2.7348674E3,8.756652E2,3.611505E3,2.0605156E3,5.274308E3,4.1526636E3,2.5024097E3,7.878588E2,1.01585583E3,2.0318118E3,5.0926218E2,2.2256052E3,7.381876E2,1.3747763E2,1.3851699E3,2.226335E3,5.18447E2,1.5420686E3,2.0575925E3,3.2167158E3,2.7619788E3,1.3906847E3,1.3861721E3,1.1162377E3,6.028848E2,1.8497403E2,5.484674E1,9.610091E2,1.2064941E3,8.253176E2,3.8389843E1,4.708723E2,1.0973249E2,2.1158726E3,5.518106E2,1.8637701E2,8.069056E1,5.678707E1,8.080417E1,1.3043658E3,5.896881E2,1.6366469E3,1.6617134E2,3.5227567E2,1.3077039E3,2.3436475E2,2.0471631E3,1.0429377E1,2.7340867E3,4.8262924E2,1.6844032E3,1.0775754E3,1.2047599E2,1.2702086E3],"tree_param":{"num_deleted":"0","num_feature":"11","num_nodes":"63","size_leaf_vector":"1"}},{"base_weights":[-2.999899E-1,-1.7525865E-2,-3.8959295E-1,2.1777454E-1,-1.24707945E-1,7.6273116E-3,-4.2081398E-1,4.0729588E-1,1.2142617E-1,4.1149154E-2,-2.2003144E-1,2.2150214E-1,-1.541115E-1,-3.4677324E-1,-4.646216E-1,5.6082594E-1,2.982461E-1,2.1181554E-1,-4.6529002E-2,2.2331282E-1,-1.7417379E-2,-1.1713996E-1,-2.7633342E-1,1.48823E-1,4.5196614E-1,1.6605659E-1,-2.259462E-1,-2.507886E-1,-4.0438816E-1,-3.9676434E-1,-4.8808584E-1,2.2557457E-1,1.475619E-1,3.641314E-2,1.2210015E-1,1.2494649E-1,3.380589E-2,8.7025166E-2,-6.293604E-2,8.6188E-2,-9.295773E-3,1.2007241E-2,-5.3404696E-2,1.15999974E-1,-4.004602E-2,-6.055549E-2,-9.596673E-2,1.01800434E-1,2.9850924E-2,9.639315E-2,1.5840378E-1,1.6708031E-1,1.9023996E-2,-5.1553752E-2,-1.3245067E-1,-4.7232922E-2,-8.979108E-2,-1.03197016E-1,-1.29131E-1,-1.10642605E-1,-1.3970754E-1,-1.402329E-1,-1.5520588E-1],"categories":[],"categories_nodes":[],"categories_segments":[],"categories_sizes":[],"default_left":[0,0,0,0,0,0,0,0,0,0,0,0,0,0,0,0,0,0,0,0,0,0,0,0,0,0,0,0,0,0,0,0,0,0,0,0,0,0,0,0,0,0,0,0,0,0,0,0,0,0,0,0,0,0,0,0,0,0,0,0,0,0,0],"id":20,"left_children":[1,3,5,7,9,11,13,15,17,19,21,23,25,27,29,31,33,35,37,39,41,43,45,47,49,51,53,55,57,59,61,-1,-1,-1,-1,-1,-1,-1,-1,-1,-1,-1,-1,-1,-1,-1,-1,-1,-1,-1,-1,-1,-1,-1,-1,-1,-1,-1,-1,-1,-1,-1,-1],"loss_changes":[4.2781763E2,1.02719444E2,1.5915051E2,2.3226269E1,4.4248535E1,3.2416298E1,3.84292E1,7.018387E0,1.2860743E1,1.0908356E1,1.0262268E1,6.6913815E0,1.2310292E1,2.4378479E1,1.1703491E1,1.9637375E0,4.8186913E0,1.1122225E1,1.6381813E1,4.055876E0,7.1506343E0,5.2420044E0,3.6591492E0,2.8625894E0,7.866707E-1,3.911068E0,5.011595E0,7.4842987E0,4.2014465E0,3.5379639E0,3.1098633E0,0E0,0E0,0E0,0E0,0E0,0E0,0E0,0E0,0E0,0E0,0E0,0E0,0E0,0E0,0E0,0E0,0E0,0E0,0E0,0E0,0E0,0E0,0E0,0E0,0E0,0E0,0E0,0E0,0E0,0E0,0E0,0E0],"parents":[2147483647,0,0,1,1,2,2,3,3,4,4,5,5,6,6,7,7,8,8,9,9,10,10,11,11,12,12,13,13,14,14,15,15,16,16,17,17,18,18,19,19,20,20,21,21,22,22,23,23,24,24,25,25,26,26,27,27,28,28,29,29,30,30],"right_children":[2,4,6,8,10,12,14,16,18,20,22,24,26,28,30,32,34,36,38,40,42,44,46,48,50,52,54,56,58,60,62,-1,-1,-1,-1,-1,-1,-1,-1,-1,-1,-1,-1,-1,-1,-1,-1,-1,-1,-1,-1,-1,-1,-1,-1,-1,-1,-1,-1,-1,-1,-1,-1],"split_conditions":[-8.788327E-1,-9.009195E-1,-1.4258351E0,-1.872835E0,-1.7879016E0,-2.2458696E0,-1.6928719E-1,-1.957437E0,3.8842407E-1,-2.6388388E0,-2.0020458E-1,1.2049363E0,-5.602046E-1,-7.820246E-2,-1.3443185E-1,-3.1654625E0,3.674755E-1,-1.957437E0,1.0615379E0,6.988733E-1,5.048968E-1,-1.4231083E0,-6.7883134E-2,-4.395039E-1,1.6826215E0,-5.788249E-1,1.1347904E0,-9.175875E-1,3.3973682E-1,7.7638084E-1,7.424045E-1,2.2557457E-1,1.475619E-1,3.641314E-2,1.2210015E-1,1.2494649E-1,3.380589E-2,8.7025166E-2,-6.293604E-2,8.6188E-2,-9.295773E-3,1.2007241E-2,-5.3404696E-2,1.15999974E-1,-4.004602E-2,-6.055549E-2,-9.596673E-2,1.01800434E-1,2.9850924E-2,9.639315E-2,1.5840378E-1,1.6708031E-1,1.9023996E-2,-5.1553752E-2,-1.3245067E-1,-4.7232922E-2,-8.979108E-2,-1.03197016E-1,-1.29131E-1,-1.10642605E-1,-1.3970754E-1,-1.402329E-1,-1.5520588E-1],"split_indices":[4,5,5,5,4,5,5,4,0,4,5,1,4,4,4,4,1,4,3,5,5,0,1,4,1,1,0,5,4,5,4,0,0,0,0,0,0,0,0,0,0,0,0,0,0,0,0,0,0,0,0,0,0,0,0,0,0,0,0,0,0,0,0],"split_type":[0,0,0,0,0,0,0,0,0,0,0,0,0,0,0,0,0,0,0,0,0,0,0,0,0,0,0,0,0,0,0,0,0,0,0,0,0,0,0,0,0,0,0,0,0,0,0,0,0,0,0,0,0,0,0,0,0,0,0,0,0,0,0],"sum_hessian":[1.6902623E4,4.0708608E3,1.2831762E4,1.273679E3,2.797182E3,9.351208E2,1.1896641E4,4.281879E2,8.454911E2,1.02109937E3,1.7760825E3,4.0250284E2,5.326179E2,4.4256377E3,7.471003E3,1.7610655E2,2.5208136E2,5.495016E2,2.9598947E2,2.4773587E2,7.733635E2,6.2923694E2,1.1468456E3,3.072532E2,9.524964E1,9.736213E1,4.352558E2,1.6620566E3,2.763581E3,1.9242091E3,5.546794E3,4.4070175E1,1.3203638E2,9.678861E1,1.5529274E2,1.7825531E2,3.712463E2,9.641645E1,1.9957301E2,1.9783232E2,4.9903545E1,5.701777E2,2.0318585E2,1.9062996E1,6.1017395E2,4.2526337E2,7.215823E2,6.19755E1,2.452777E2,3.6965057E1,5.8284588E1,1.9329018E1,7.8033104E1,3.4936838E2,8.588742E1,5.6985986E2,1.0921968E3,8.3701587E2,1.9265651E3,1.3734952E3,5.507138E2,3.2625806E3,2.2842136E3],"tree_param":{"num_deleted":"0","num_feature":"11","num_nodes":"63","size_leaf_vector":"1"}},{"base_weights":[-1.4646044E-1,-8.371853E-3,-2.8557524E-1,5.4065447E-2,-1.273724E-1,-1.3275327E-1,-3.5948506E-1,1.1566918E-1,-3.8996276E-3,-2.3724059E-2,-2.069784E-1,-8.336014E-2,-2.768503E-1,-3.1212533E-1,-4.322651E-1,-1.1355622E-1,1.2772453E-1,1.3240464E-1,-4.0736925E-2,1.5168127E-1,-5.52876E-2,-1.4412498E-1,-2.5085145E-1,2.842962E-2,-1.4134552E-1,-5.5010412E-2,-3.206683E-1,-2.840792E-1,-4.1582987E-1,-3.777305E-1,-4.5651776E-1,-1.05202705E-1,4.294546E-3,-3.0594835E-2,4.24595E-2,-1.0238881E-3,5.9567478E-2,7.238965E-2,-1.4786238E-2,6.988228E-2,-1.8924119E-2,-8.109566E-3,-8.9587115E-2,-2.7068427E-2,-7.489071E-2,-4.8279915E-2,-9.034822E-2,-2.9873056E-2,3.1923335E-2,-2.0936815E-2,-5.4141432E-2,-6.49967E-2,3.5029914E-2,-1.0184422E-1,-1.3142535E-2,-6.193868E-2,-8.9169815E-2,6.1072636E-2,-1.2531516E-1,-1.0702561E-1,-1.5183687E-1,-5.0568942E-2,-1.376848E-1],"categories":[],"categories_nodes":[],"categories_segments":[],"categories_sizes":[],"default_left":[0,0,0,0,0,0,0,0,0,0,0,0,0,0,0,0,0,0,0,0,0,0,0,0,0,0,0,0,0,0,0,0,0,0,0,0,0,0,0,0,0,0,0,0,0,0,0,0,0,0,0,0,0,0,0,0,0,0,0,0,0,0,0],"id":21,"left_children":[1,3,5,7,9,11,13,15,17,19,21,23,25,27,29,31,33,35,37,39,41,43,45,47,49,51,53,55,57,59,61,-1,-1,-1,-1,-1,-1,-1,-1,-1,-1,-1,-1,-1,-1,-1,-1,-1,-1,-1,-1,-1,-1,-1,-1,-1,-1,-1,-1,-1,-1,-1,-1],"loss_changes":[3.8472507E2,7.4692055E1,1.12637695E2,2.3544554E1,2.8538315E1,2.3135017E1,2.3040955E1,8.847412E0,1.706695E1,8.33448E0,5.3589706E0,1.5720467E1,8.052025E0,1.1739441E1,3.329773E0,4.863453E0,9.64711E0,6.4983654E0,6.4647317E0,4.021799E0,8.760181E0,4.5644684E0,5.1576996E0,8.285027E0,4.4575195E0,3.8608909E0,3.5947037E0,3.2180176E0,1.0970306E0,2.0305252E0,1.2026367E0,0E0,0E0,0E0,0E0,0E0,0E0,0E0,0E0,0E0,0E0,0E0,0E0,0E0,0E0,0E0,0E0,0E0,0E0,0E0,0E0,0E0,0E0,0E0,0E0,0E0,0E0,0E0,0E0,0E0,0E0,0E0,0E0],"parents":[2147483647,0,0,1,1,2,2,3,3,4,4,5,5,6,6,7,7,8,8,9,9,10,10,11,11,12,12,13,13,14,14,15,15,16,16,17,17,18,18,19,19,20,20,21,21,22,22,23,23,24,24,25,25,26,26,27,27,28,28,29,29,30,30],"right_children":[2,4,6,8,10,12,14,16,18,20,22,24,26,28,30,32,34,36,38,40,42,44,46,48,50,52,54,56,58,60,62,-1,-1,-1,-1,-1,-1,-1,-1,-1,-1,-1,-1,-1,-1,-1,-1,-1,-1,-1,-1,-1,-1,-1,-1,-1,-1,-1,-1,-1,-1,-1,-1],"split_conditions":[-8.516416E-2,1.8536255E-1,-3.6364812E-1,-6.196912E-1,-9.087954E-1,8.973835E-1,7.5126666E-1,-1.6593952E0,-1.6002247E0,-2.1764936E0,-5.48287E-1,-1.1523736E0,-1.4709972E0,9.631403E-1,1.9332516E-1,-5.023016E-1,-3.4186556E0,-3.9102033E-1,-1.1751275E0,6.4012367E-1,1.3225203E0,8.01366E-1,-3.6073735E-1,-2.1166949E-1,2.5370458E-1,-1.1693118E-2,1.5644822E0,6.4353965E-2,-4.372866E0,1.4633965E0,-1.2590728E0,-1.05202705E-1,4.294546E-3,-3.0594835E-2,4.24595E-2,-1.0238881E-3,5.9567478E-2,7.238965E-2,-1.4786238E-2,6.988228E-2,-1.8924119E-2,-8.109566E-3,-8.9587115E-2,-2.7068427E-2,-7.489071E-2,-4.8279915E-2,-9.034822E-2,-2.9873056E-2,3.1923335E-2,-2.0936815E-2,-5.4141432E-2,-6.49967E-2,3.5029914E-2,-1.0184422E-1,-1.3142535E-2,-6.193868E-2,-8.9169815E-2,6.1072636E-2,-1.2531516E-1,-1.0702561E-1,-1.5183687E-1,-5.0568942E-2,-1.376848E-1],"split_indices":[4,5,5,5,4,4,4,0,4,4,4,5,5,5,5,10,5,5,6,2,5,5,8,0,4,6,9,4,2,4,1,0,0,0,0,0,0,0,0,0,0,0,0,0,0,0,0,0,0,0,0,0,0,0,0,0,0,0,0,0,0,0,0],"split_type":[0,0,0,0,0,0,0,0,0,0,0,0,0,0,0,0,0,0,0,0,0,0,0,0,0,0,0,0,0,0,0,0,0,0,0,0,0,0,0,0,0,0,0,0,0,0,0,0,0,0,0,0,0,0,0,0,0,0,0,0,0,0,0],"sum_hessian":[2.0026281E4,1.0050741E4,9.975539E3,6.5923877E3,3.4583538E3,3.2527285E3,6.7228105E3,3.195403E3,3.3969846E3,1.5028787E3,1.9554751E3,2.423565E3,8.291635E2,4.0758472E3,2.6469634E3,1.592344E2,3.0361687E3,7.221846E2,2.6748E3,2.2861435E2,1.2742643E3,8.0561725E2,1.1498578E3,8.279238E2,1.5956411E3,1.3713544E2,6.920281E2,3.2111538E3,8.6469324E2,8.199021E2,1.8270613E3,5.5175957E1,1.0405845E2,1.7178687E2,2.8643818E3,2.3685484E2,4.8532974E2,7.790529E1,2.5968948E3,1.657969E2,6.2817444E1,1.1426886E3,1.3157568E2,5.3445996E2,2.711573E2,4.1403918E2,7.3581866E2,3.133248E2,5.14599E2,5.650404E2,1.0306007E3,7.0516655E1,6.661878E1,6.477854E2,4.4242664E1,4.6774658E2,2.7434072E3,2.3020499E0,8.623912E2,7.0799835E2,1.11903786E2,1.5888141E1,1.8111732E3],"tree_param":{"num_deleted":"0","num_feature":"11","num_nodes":"63","size_leaf_vector":"1"}},{"base_weights":[9.3942925E-2,1.3385387E-1,-2.6136369E-2,1.5339345E-1,6.8610054E-3,5.463895E-2,-1.2325644E-1,-3.2873653E-2,1.6279429E-1,6.855521E-2,-9.072463E-2,8.012318E-2,-8.464106E-2,-8.737341E-2,-2.2555627E-1,-2.1338953E-1,7.1376935E-2,1.9278516E-1,1.1531872E-1,-3.9256614E-1,7.839939E-2,-6.064461E-2,-2.4034452E-1,2.4331856E-1,6.0502965E-2,1.1985694E-3,-1.8077664E-1,-5.2663993E-2,-1.7010109E-1,-1.7607525E-1,-3.3281067E-1,-5.5749442E-2,-1.3769625E-1,-2.1191524E-2,4.7777593E-2,2.2823306E-2,6.2105335E-2,5.1929217E-2,1.8312681E-2,1.1496402E-1,-1.3126126E-1,2.7474446E-2,-8.2183406E-2,1.0901126E-1,-2.055262E-2,-8.3592184E-2,7.821041E-3,5.53382E-3,1.261837E-1,3.330601E-2,-3.642642E-4,-4.1835684E-2,3.1141402E-2,1.9738005E-2,-6.3292615E-2,-1.890526E-2,4.0547475E-2,3.146228E-2,-5.4978304E-2,-5.7888884E-2,6.635923E-2,-6.349342E-2,-1.1460823E-1],"categories":[],"categories_nodes":[],"categories_segments":[],"categories_sizes":[],"default_left":[0,0,0,0,0,0,0,0,0,0,0,0,0,0,0,0,0,0,0,0,0,0,0,0,0,0,0,0,0,0,0,0,0,0,0,0,0,0,0,0,0,0,0,0,0,0,0,0,0,0,0,0,0,0,0,0,0,0,0,0,0,0,0],"id":22,"left_children":[1,3,5,7,9,11,13,15,17,19,21,23,25,27,29,31,33,35,37,39,41,43,45,47,49,51,53,55,57,59,61,-1,-1,-1,-1,-1,-1,-1,-1,-1,-1,-1,-1,-1,-1,-1,-1,-1,-1,-1,-1,-1,-1,-1,-1,-1,-1,-1,-1,-1,-1,-1,-1],"loss_changes":[1.355466E2,5.267212E1,5.5361473E1,3.2219208E1,1.7053984E1,1.368249E1,1.1742447E1,1.6664272E1,2.491336E1,7.9084787E0,4.9235077E0,1.04155445E1,4.9220204E0,6.807213E0,4.353863E0,2.108491E0,7.0199165E0,1.7809662E1,2.1259758E1,1.4389992E0,7.9208717E0,3.0755954E0,1.8776655E0,1.391716E1,9.070431E0,4.5759673E0,2.108798E0,3.263133E0,2.5564117E0,3.8740406E0,1.477726E0,0E0,0E0,0E0,0E0,0E0,0E0,0E0,0E0,0E0,0E0,0E0,0E0,0E0,0E0,0E0,0E0,0E0,0E0,0E0,0E0,0E0,0E0,0E0,0E0,0E0,0E0,0E0,0E0,0E0,0E0,0E0,0E0],"parents":[2147483647,0,0,1,1,2,2,3,3,4,4,5,5,6,6,7,7,8,8,9,9,10,10,11,11,12,12,13,13,14,14,15,15,16,16,17,17,18,18,19,19,20,20,21,21,22,22,23,23,24,24,25,25,26,26,27,27,28,28,29,29,30,30],"right_children":[2,4,6,8,10,12,14,16,18,20,22,24,26,28,30,32,34,36,38,40,42,44,46,48,50,52,54,56,58,60,62,-1,-1,-1,-1,-1,-1,-1,-1,-1,-1,-1,-1,-1,-1,-1,-1,-1,-1,-1,-1,-1,-1,-1,-1,-1,-1,-1,-1,-1,-1,-1,-1],"split_conditions":[5.9528375E-1,8.697903E-1,2.0494357E-1,-1.6403162E0,1.7800706E-2,1.3593957E0,1.21279E0,-8.656506E-1,2.5750779E-2,8.748717E-1,1.5706717E0,-1.301116E0,-3.7626737E-1,1.0005E0,9.631403E-1,2.5170588E0,-2.091694E0,-1.617834E0,-2.8628328E-1,-1.4517312E0,2.0516484E0,-1.7559909E0,8.075509E-1,-1.7600348E0,1.4588526E-1,-1.7416364E-1,-1.2468309E0,1.626117E0,-1.1867725E0,1.6711241E0,1.3066545E0,-5.5749442E-2,-1.3769625E-1,-2.1191524E-2,4.7777593E-2,2.2823306E-2,6.2105335E-2,5.1929217E-2,1.8312681E-2,1.1496402E-1,-1.3126126E-1,2.7474446E-2,-8.2183406E-2,1.0901126E-1,-2.055262E-2,-8.3592184E-2,7.821041E-3,5.53382E-3,1.261837E-1,3.330601E-2,-3.642642E-4,-4.1835684E-2,3.1141402E-2,1.9738005E-2,-6.3292615E-2,-1.890526E-2,4.0547475E-2,3.146228E-2,-5.4978304E-2,-5.7888884E-2,6.635923E-2,-6.349342E-2,-1.1460823E-1],"split_indices":[4,5,5,5,4,4,4,4,5,5,5,5,5,5,5,1,5,4,4,8,5,8,10,5,2,0,0,0,6,0,4,0,0,0,0,0,0,0,0,0,0,0,0,0,0,0,0,0,0,0,0,0,0,0,0,0,0,0,0,0,0,0,0],"split_type":[0,0,0,0,0,0,0,0,0,0,0,0,0,0,0,0,0,0,0,0,0,0,0,0,0,0,0,0,0,0,0,0,0,0,0,0,0,0,0,0,0,0,0,0,0,0,0,0,0,0,0,0,0,0,0,0,0,0,0,0,0,0,0],"sum_hessian":[2.8281457E4,2.1226316E4,7.0551396E3,1.8395684E4,2.830634E3,3.8519163E3,3.2032234E3,8.836985E2,1.7511984E4,1.7344207E3,1.0962133E3,3.256496E3,5.9542017E2,2.37279E3,8.304335E2,3.2313126E2,5.6056726E2,1.0730404E4,6.78158E3,3.5440445E1,1.6989802E3,9.1388794E2,1.8232538E2,3.482714E2,2.9082246E3,3.1507587E2,2.803443E2,1.672647E3,7.0014307E2,5.700752E2,2.6035828E2,2.9211075E2,3.102053E1,2.1436049E2,3.4620676E2,1.1670382E3,9.563366E3,3.2837524E3,3.4978274E3,1.5297734E0,3.391067E1,1.6384227E3,6.0557507E1,1.5817873E1,8.9807007E2,1.5937059E2,2.295479E1,1.5402109E2,1.942503E2,1.5987822E3,1.3094424E3,1.3274794E2,1.8232793E2,3.0460264E1,2.4988403E2,1.5858905E3,8.675637E1,3.1659092E1,6.6848395E2,5.4732324E2,2.2751932E1,7.673812E1,1.8362016E2],"tree_param":{"num_deleted":"0","num_feature":"11","num_nodes":"63","size_leaf_vector":"1"}},{"base_weights":[1.563182E-1,-7.3850885E-2,1.7757548E-1,-1.7250125E-1,5.8011662E-2,9.9178836E-2,2.0702471E-1,-3.5787484E-1,-1.3056399E-1,2.8779045E-2,2.4762781E-1,9.404814E-3,1.6805667E-1,2.2934796E-1,1.791039E-1,-4.369974E-1,-2.72389E-1,-2.26213E-1,-6.672911E-2,1.18634865E-1,-2.9031308E-2,7.401411E-1,1.4765236E-1,-8.419271E-2,5.9413135E-2,-8.730169E-2,1.7725892E-1,1.8707055E-1,2.5085652E-1,1.9676754E-1,2.2595318E-2,-1.4409901E-1,-9.669069E-2,-1.417249E-1,-6.747096E-2,-1.3521889E-1,-5.9591565E-2,7.933581E-2,-2.6704798E-2,2.0777073E-2,1.0981595E-1,-1.0825281E-2,2.2195026E-1,2.5918156E-1,-6.9186956E-2,1.01589434E-1,-1.5959311E-2,1.0059271E-3,-4.7619376E-2,1.1832935E-3,2.5883874E-2,-3.303713E-2,2.5202277E-1,3.930821E-2,6.51492E-2,3.2506116E-2,6.166911E-2,7.2070464E-2,1.1123822E-1,-3.3938251E-3,6.0637716E-2,-5.8655716E-3,4.3883517E-2],"categories":[],"categories_nodes":[],"categories_segments":[],"categories_sizes":[],"default_left":[0,0,0,0,0,0,0,0,0,0,0,0,0,0,0,0,0,0,0,0,0,0,0,0,0,0,0,0,0,0,0,0,0,0,0,0,0,0,0,0,0,0,0,0,0,0,0,0,0,0,0,0,0,0,0,0,0,0,0,0,0,0,0],"id":23,"left_children":[1,3,5,7,9,11,13,15,17,19,21,23,25,27,29,31,33,35,37,39,41,43,45,47,49,51,53,55,57,59,61,-1,-1,-1,-1,-1,-1,-1,-1,-1,-1,-1,-1,-1,-1,-1,-1,-1,-1,-1,-1,-1,-1,-1,-1,-1,-1,-1,-1,-1,-1,-1,-1],"loss_changes":[1.54513E2,3.4748062E1,6.67193E1,1.1830936E1,6.3318048E0,4.882093E1,1.3056091E1,1.7836723E0,7.6021442E0,5.156345E0,7.4058027E0,1.6054632E1,1.0514145E1,1.0567993E1,2.5817719E1,5.6303406E-1,1.2033043E0,2.999279E0,5.5565453E0,4.721538E0,3.3043618E0,3.2642975E0,4.932447E0,7.7951574E0,3.331037E0,3.3957436E0,7.9279175E0,5.7135773E0,9.7638855E0,9.360107E0,4.946794E0,0E0,0E0,0E0,0E0,0E0,0E0,0E0,0E0,0E0,0E0,0E0,0E0,0E0,0E0,0E0,0E0,0E0,0E0,0E0,0E0,0E0,0E0,0E0,0E0,0E0,0E0,0E0,0E0,0E0,0E0,0E0,0E0],"parents":[2147483647,0,0,1,1,2,2,3,3,4,4,5,5,6,6,7,7,8,8,9,9,10,10,11,11,12,12,13,13,14,14,15,15,16,16,17,17,18,18,19,19,20,20,21,21,22,22,23,23,24,24,25,25,26,26,27,27,28,28,29,29,30,30],"right_children":[2,4,6,8,10,12,14,16,18,20,22,24,26,28,30,32,34,36,38,40,42,44,46,48,50,52,54,56,58,60,62,-1,-1,-1,-1,-1,-1,-1,-1,-1,-1,-1,-1,-1,-1,-1,-1,-1,-1,-1,-1,-1,-1,-1,-1,-1,-1,-1,-1,-1,-1,-1,-1],"split_conditions":[-1.2288467E0,1.6405977E-1,-3.6364812E-1,-2.2958965E0,1.3225203E0,1.2601508E-1,1.0615379E0,-2.6388388E0,-6.196912E-1,4.8032224E-2,-7.4247706E-1,-1.0904572E0,-2.091694E0,-3.5219485E-1,1.3065392E0,6.4012367E-1,-1.0442994E0,-2.2458696E0,-5.6939703E-1,1.1347904E0,3.2819598E0,4.76985E-1,-1.8727027E-1,-2.0997937E-1,-6.4967924E-1,1.7799633E0,6.471516E-1,-2.281557E-1,7.184996E-1,-1.6743976E0,6.622167E-1,-1.4409901E-1,-9.669069E-2,-1.417249E-1,-6.747096E-2,-1.3521889E-1,-5.9591565E-2,7.933581E-2,-2.6704798E-2,2.0777073E-2,1.0981595E-1,-1.0825281E-2,2.2195026E-1,2.5918156E-1,-6.9186956E-2,1.01589434E-1,-1.5959311E-2,1.0059271E-3,-4.7619376E-2,1.1832935E-3,2.5883874E-2,-3.303713E-2,2.5202277E-1,3.930821E-2,6.51492E-2,3.2506116E-2,6.166911E-2,7.2070464E-2,1.1123822E-1,-3.3938251E-3,6.0637716E-2,-5.8655716E-3,4.3883517E-2],"split_indices":[4,5,5,4,5,4,3,4,5,7,10,5,5,8,5,2,0,5,5,0,1,6,6,1,4,9,4,4,9,0,0,0,0,0,0,0,0,0,0,0,0,0,0,0,0,0,0,0,0,0,0,0,0,0,0,0,0,0,0,0,0,0,0],"split_type":[0,0,0,0,0,0,0,0,0,0,0,0,0,0,0,0,0,0,0,0,0,0,0,0,0,0,0,0,0,0,0,0,0,0,0,0,0,0,0,0,0,0,0,0,0,0,0,0,0,